{"learner":{"attributes":{},"feature_names":["default_flag","sy_snum","sy_pnum","disc_year","pl_controv_flag","pl_orbper","pl_orbpererr1","pl_orbpererr2","pl_orbperlim","pl_orbsmax","pl_orbsmaxerr1","pl_orbsmaxerr2","pl_orbsmaxlim","pl_rade","pl_radeerr1","pl_radeerr2","pl_radelim","pl_radj","pl_radjerr1","pl_radjerr2","pl_radjlim","pl_bmasse","pl_bmasseerr1","pl_bmasseerr2","pl_bmasselim","pl_bmassj","pl_bmassjerr1","pl_bmassjerr2","pl_bmassjlim","pl_orbeccen","pl_orbeccenerr1","pl_orbeccenerr2","pl_orbeccenlim","pl_insol","pl_insolerr1","pl_insolerr2","pl_insollim","pl_eqt","pl_eqterr1","pl_eqterr2","pl_eqtlim","ttv_flag","st_teff","st_tefferr1","st_tefferr2","st_tefflim","st_rad","st_raderr1","st_raderr2","st_radlim","st_mass","st_masserr1","st_masserr2","st_masslim","st_met","st_meterr1","st_meterr2","st_metlim","st_logg","st_loggerr1","st_loggerr2","st_logglim","ra","dec","sy_dist","sy_disterr1","sy_disterr2","sy_vmag","sy_vmagerr1","sy_vmagerr2","sy_kmag","sy_kmagerr1","sy_kmagerr2","sy_gaiamag","sy_gaiamagerr1","sy_gaiamagerr2"],"feature_types":["float","float","float","float","float","float","float","float","float","float","float","float","float","float","float","float","float","float","float","float","float","float","float","float","float","float","float","float","float","float","float","float","float","float","float","float","float","float","float","float","float","float","float","float","float","float","float","float","float","float","float","float","float","float","float","float","float","float","float","float","float","float","float","float","float","float","float","float","float","float","float","float","float","float","float","float"],"gradient_booster":{"model":{"gbtree_model_param":{"num_parallel_tree":"1","num_trees":"400"},"iteration_indptr":[0,1,2,3,4,5,6,7,8,9,10,11,12,13,14,15,16,17,18,19,20,21,22,23,24,25,26,27,28,29,30,31,32,33,34,35,36,37,38,39,40,41,42,43,44,45,46,47,48,49,50,51,52,53,54,55,56,57,58,59,60,61,62,63,64,65,66,67,68,69,70,71,72,73,74,75,76,77,78,79,80,81,82,83,84,85,86,87,88,89,90,91,92,93,94,95,96,97,98,99,100,101,102,103,104,105,106,107,108,109,110,111,112,113,114,115,116,117,118,119,120,121,122,123,124,125,126,127,128,129,130,131,132,133,134,135,136,137,138,139,140,141,142,143,144,145,146,147,148,149,150,151,152,153,154,155,156,157,158,159,160,161,162,163,164,165,166,167,168,169,170,171,172,173,174,175,176,177,178,179,180,181,182,183,184,185,186,187,188,189,190,191,192,193,194,195,196,197,198,199,200,201,202,203,204,205,206,207,208,209,210,211,212,213,214,215,216,217,218,219,220,221,222,223,224,225,226,227,228,229,230,231,232,233,234,235,236,237,238,239,240,241,242,243,244,245,246,247,248,249,250,251,252,253,254,255,256,257,258,259,260,261,262,263,264,265,266,267,268,269,270,271,272,273,274,275,276,277,278,279,280,281,282,283,284,285,286,287,288,289,290,291,292,293,294,295,296,297,298,299,300,301,302,303,304,305,306,307,308,309,310,311,312,313,314,315,316,317,318,319,320,321,322,323,324,325,326,327,328,329,330,331,332,333,334,335,336,337,338,339,340,341,342,343,344,345,346,347,348,349,350,351,352,353,354,355,356,357,358,359,360,361,362,363,364,365,366,367,368,369,370,371,372,373,374,375,376,377,378,379,380,381,382,383,384,385,386,387,388,389,390,391,392,393,394,395,396,397,398,399,400],"tree_info":[0,0,0,0,0,0,0,0,0,0,0,0,0,0,0,0,0,0,0,0,0,0,0,0,0,0,0,0,0,0,0,0,0,0,0,0,0,0,0,0,0,0,0,0,0,0,0,0,0,0,0,0,0,0,0,0,0,0,0,0,0,0,0,0,0,0,0,0,0,0,0,0,0,0,0,0,0,0,0,0,0,0,0,0,0,0,0,0,0,0,0,0,0,0,0,0,0,0,0,0,0,0,0,0,0,0,0,0,0,0,0,0,0,0,0,0,0,0,0,0,0,0,0,0,0,0,0,0,0,0,0,0,0,0,0,0,0,0,0,0,0,0,0,0,0,0,0,0,0,0,0,0,0,0,0,0,0,0,0,0,0,0,0,0,0,0,0,0,0,0,0,0,0,0,0,0,0,0,0,0,0,0,0,0,0,0,0,0,0,0,0,0,0,0,0,0,0,0,0,0,0,0,0,0,0,0,0,0,0,0,0,0,0,0,0,0,0,0,0,0,0,0,0,0,0,0,0,0,0,0,0,0,0,0,0,0,0,0,0,0,0,0,0,0,0,0,0,0,0,0,0,0,0,0,0,0,0,0,0,0,0,0,0,0,0,0,0,0,0,0,0,0,0,0,0,0,0,0,0,0,0,0,0,0,0,0,0,0,0,0,0,0,0,0,0,0,0,0,0,0,0,0,0,0,0,0,0,0,0,0,0,0,0,0,0,0,0,0,0,0,0,0,0,0,0,0,0,0,0,0,0,0,0,0,0,0,0,0,0,0,0,0,0,0,0,0,0,0,0,0,0,0,0,0,0,0,0,0,0,0,0,0,0,0,0,0,0,0,0,0,0,0,0,0,0,0,0,0,0,0,0,0,0,0,0,0,0,0,0,0,0,0,0,0,0,0,0,0,0,0],"trees":[{"base_weights":[-2.7400319E-2,-4.9162126E0,5.153825E-1,-6.4115863E0,4.4453618E-1,-3.7279665E0,6.678541E-1,-7.2205453E0,2.3826163E-2,-3.655698E-2,8.0359705E-2,-4.735302E0,1.1163837E-2,7.5258034E-1,-4.320508E-1,-1.2089952E-1,-7.7863574E-1,-1.3199861E-1,-5.4941654E-1,-2.7961943E-1,8.241767E-1,-2.2744024E-1,8.642047E-2],"categories":[],"categories_nodes":[],"categories_segments":[],"categories_sizes":[],"default_left":[0,0,0,0,0,0,0,0,0,0,0,0,0,0,0,0,0,0,0,0,0,0,0],"id":0,"left_children":[1,3,5,7,9,11,13,15,-1,-1,-1,17,-1,19,-1,-1,-1,-1,-1,-1,21,-1,-1],"loss_changes":[4.4441397E2,1.3700876E2,1.0004785E2,7.2461975E1,1.6275432E0,2.1345314E1,6.5129196E1,3.0573364E1,0E0,0E0,0E0,3.8575134E0,0E0,3.909832E1,0E0,0E0,0E0,0E0,0E0,0E0,1.9667152E1,0E0,0E0],"parents":[2147483647,0,0,1,1,2,2,3,3,4,4,5,5,6,6,7,7,11,11,13,13,20,20],"right_children":[2,4,6,8,10,12,14,16,-1,-1,-1,18,-1,20,-1,-1,-1,-1,-1,-1,22,-1,-1],"split_conditions":[-2.773079E-1,1.2636416E-1,-3.7388355E-1,1.6325265E0,1.1446391E-1,3.4397092E-1,1.5250278E0,-8.832033E-1,2.3826163E-2,-3.655698E-2,8.0359705E-2,1.4740249E0,1.1163837E-2,-1.333008E0,-4.320508E-1,-1.2089952E-1,-7.7863574E-1,-1.3199861E-1,-5.4941654E-1,-2.7961943E-1,-2.3124669E0,-2.2744024E-1,8.642047E-2],"split_indices":[75,15,66,62,44,75,13,67,0,0,0,0,0,55,0,0,0,0,0,0,42,0,0],"split_type":[0,0,0,0,0,0,0,0,0,0,0,0,0,0,0,0,0,0,0,0,0,0,0],"sum_hessian":[1.6552335E2,1.5735674E1,1.4978767E2,1.2150331E1,3.5853434E0,4.3820863E0,1.454056E2,1.075603E1,1.3943002E0,1.0955216E0,2.489822E0,3.2865648E0,1.0955216E0,1.438121E2,1.593486E0,1.1951145E0,9.560916E0,1.0955216E0,2.1910431E0,2.0914502E0,1.4172066E2,1.0955216E0,1.4062514E2],"tree_param":{"num_deleted":"0","num_feature":"76","num_nodes":"23","size_leaf_vector":"1"}},{"base_weights":[8.005725E-3,-2.9303916E0,4.659338E-1,4.4375524E-1,-3.5843508E0,8.1507516E-1,-1.1962724E0,-2.7121712E-2,7.967965E-2,-3.9234512E0,2.6247397E-2,8.6995614E-1,-1.9684109E-1,1.2684521E-1,-2.8913546E0,1.7038401E-2,-4.227572E-1,-1.6801016E-1,9.179488E-1,-6.4846593E-1,9.720632E-2,-4.2657056E0,5.949339E-1,9.507307E-2,-1.409471E-1,-3.0308118E-1,1.5287383E-2,-5.1084125E-1,1.8433262E-2,7.035987E-3,7.500424E-2],"categories":[],"categories_nodes":[],"categories_segments":[],"categories_sizes":[],"default_left":[0,0,0,0,0,0,0,0,0,0,0,0,0,0,0,0,0,0,0,0,0,0,0,0,0,0,0,0,0,0,0],"id":1,"left_children":[1,3,5,7,9,11,13,-1,-1,15,-1,17,-1,19,21,-1,-1,-1,23,25,-1,27,29,-1,-1,-1,-1,-1,-1,-1,-1],"loss_changes":[2.2357523E2,5.1024567E1,8.4392654E1,1.3587819E0,2.5653152E1,1.9949265E1,5.7235256E1,0E0,0E0,2.2395874E1,0E0,1.5955055E1,0E0,1.0590017E1,5.599829E1,0E0,0E0,0E0,1.0208672E1,1.674177E1,0E0,3.1411789E1,2.753296E-1,0E0,0E0,0E0,0E0,0E0,0E0,0E0,0E0],"parents":[2147483647,0,0,1,1,2,2,3,3,4,4,5,5,6,6,9,9,11,11,13,13,14,14,18,18,19,19,21,21,22,22],"right_children":[2,4,6,8,10,12,14,-1,-1,16,-1,18,-1,20,22,-1,-1,-1,24,26,-1,28,30,-1,-1,-1,-1,-1,-1,-1,-1],"split_conditions":[-2.773079E-1,-2.067344E-1,4.5687178E-1,-3.4892386E-1,1.6325265E0,1.502288E0,1.4740249E0,-2.7121712E-2,7.967965E-2,-4.9902484E-1,2.6247397E-2,-2.2504487E0,-1.9684109E-1,-1.9857784E-1,2.7345423E-2,1.7038401E-2,-4.227572E-1,-1.6801016E-1,8.028808E-1,5.304304E-1,9.720632E-2,-3.454598E-2,-1.996287E-1,9.507307E-2,-1.409471E-1,-3.0308118E-1,1.5287383E-2,-5.1084125E-1,1.8433262E-2,7.035987E-3,7.500424E-2],"split_indices":[75,13,64,59,62,46,0,0,0,64,0,42,0,3,60,0,0,0,18,64,0,6,13,0,0,0,0,0,0,0,0],"split_type":[0,0,0,0,0,0,0,0,0,0,0,0,0,0,0,0,0,0,0,0,0,0,0,0,0,0,0,0,0,0,0],"sum_hessian":[1.6414124E2,2.1403254E1,1.4273798E2,3.526982E0,1.7876272E1,1.1838187E2,2.435611E1,1.2424883E0,2.284494E0,1.6409815E1,1.4664564E0,1.16767075E2,1.6147975E0,1.4198479E1,1.0157631E1,1.1651554E0,1.5244659E1,1.5287817E0,1.1523829E2,7.5269E0,6.671579E0,7.125197E0,3.032434E0,1.1422099E2,1.0173011E0,1.194255E0,6.332645E0,5.866337E0,1.2588602E0,1.0237492E0,2.0086849E0],"tree_param":{"num_deleted":"0","num_feature":"76","num_nodes":"31","size_leaf_vector":"1"}},{"base_weights":[-3.0389002E-2,-4.4385543E0,1.1031809E-1,-5.5772156E-1,-3.3241317E-1],"categories":[],"categories_nodes":[],"categories_segments":[],"categories_sizes":[],"default_left":[0,0,0,0,0],"id":2,"left_children":[1,3,-1,-1,-1],"loss_changes":[8.1359955E2,2.3721008E1,0E0,0E0,0E0],"parents":[2147483647,0,0,1,1],"right_children":[2,4,-1,-1,-1],"split_conditions":[-5.135012E-1,2.773079E-1,1.1031809E-1,-5.5772156E-1,-3.3241317E-1],"split_indices":[2,74,0,0,0],"split_type":[0,0,0,0,0],"sum_hessian":[1.6083891E2,3.230345E1,1.2853546E2,1.3997219E1,1.830623E1],"tree_param":{"num_deleted":"0","num_feature":"76","num_nodes":"5","size_leaf_vector":"1"}},{"base_weights":[4.366196E-3,-3.3086345E0,1.0906941E-1,-2.712087E-1,-3.7798914E-1],"categories":[],"categories_nodes":[],"categories_segments":[],"categories_sizes":[],"default_left":[0,0,0,0,0],"id":3,"left_children":[1,3,-1,-1,-1],"loss_changes":[5.8223987E2,9.791565E-1,0E0,0E0,0E0],"parents":[2147483647,0,0,1,1],"right_children":[2,4,-1,-1,-1],"split_conditions":[-5.135012E-1,-2.773079E-1,1.0906941E-1,-2.712087E-1,-3.7798914E-1],"split_indices":[2,75,0,0,0],"split_type":[0,0,0,0,0],"sum_hessian":[1.5977531E2,3.894823E1,1.2082708E2,2.0170322E1,1.8777908E1],"tree_param":{"num_deleted":"0","num_feature":"76","num_nodes":"5","size_leaf_vector":"1"}},{"base_weights":[2.8174145E-2,-2.6703963E-1,1.0793393E-1],"categories":[],"categories_nodes":[],"categories_segments":[],"categories_sizes":[],"default_left":[0,0,0],"id":4,"left_children":[1,-1,-1],"loss_changes":[4.340164E2,0E0,0E0],"parents":[2147483647,0,0],"right_children":[2,-1,-1],"split_conditions":[-5.135012E-1,-2.6703963E-1,1.0793393E-1],"split_indices":[2,0,0],"split_type":[0,0,0],"sum_hessian":[1.5098744E2,4.1894554E1,1.0909289E2],"tree_param":{"num_deleted":"0","num_feature":"76","num_nodes":"3","size_leaf_vector":"1"}},{"base_weights":[3.2855276E-2,-2.3178068E-1,1.06931224E-1],"categories":[],"categories_nodes":[],"categories_segments":[],"categories_sizes":[],"default_left":[0,0,0],"id":5,"left_children":[1,-1,-1],"loss_changes":[3.579036E2,0E0,0E0],"parents":[2147483647,0,0],"right_children":[2,-1,-1],"split_conditions":[-5.135012E-1,-2.3178068E-1,1.06931224E-1],"split_indices":[2,0,0],"split_type":[0,0,0],"sum_hessian":[1.4488367E2,4.395604E1,1.00927635E2],"tree_param":{"num_deleted":"0","num_feature":"76","num_nodes":"3","size_leaf_vector":"1"}},{"base_weights":[3.56256E-2,-2.063986E-1,1.0600857E-1],"categories":[],"categories_nodes":[],"categories_segments":[],"categories_sizes":[],"default_left":[0,0,0],"id":6,"left_children":[1,-1,-1],"loss_changes":[2.9475897E2,0E0,0E0],"parents":[2147483647,0,0],"right_children":[2,-1,-1],"split_conditions":[-5.135012E-1,-2.063986E-1,1.0600857E-1],"split_indices":[2,0,0],"split_type":[0,0,0],"sum_hessian":[1.3501825E2,4.394306E1,9.107519E1],"tree_param":{"num_deleted":"0","num_feature":"76","num_nodes":"3","size_leaf_vector":"1"}},{"base_weights":[5.1949248E-2,-1.8498646E-1,1.0523569E-1],"categories":[],"categories_nodes":[],"categories_segments":[],"categories_sizes":[],"default_left":[0,0,0],"id":7,"left_children":[1,-1,-1],"loss_changes":[2.4613956E2,0E0,0E0],"parents":[2147483647,0,0],"right_children":[2,-1,-1],"split_conditions":[-5.135012E-1,-1.8498646E-1,1.0523569E-1],"split_indices":[2,0,0],"split_type":[0,0,0],"sum_hessian":[1.2734768E2,4.3604572E1,8.37431E1],"tree_param":{"num_deleted":"0","num_feature":"76","num_nodes":"3","size_leaf_vector":"1"}},{"base_weights":[2.8857162E-2,-1.7281564E-1,1.0448628E-1],"categories":[],"categories_nodes":[],"categories_segments":[],"categories_sizes":[],"default_left":[0,0,0],"id":8,"left_children":[1,-1,-1],"loss_changes":[2.1635393E2,0E0,0E0],"parents":[2147483647,0,0],"right_children":[2,-1,-1],"split_conditions":[-5.135012E-1,-1.7281564E-1,1.0448628E-1],"split_indices":[2,0,0],"split_type":[0,0,0],"sum_hessian":[1.1918598E2,4.34117E1,7.5774284E1],"tree_param":{"num_deleted":"0","num_feature":"76","num_nodes":"3","size_leaf_vector":"1"}},{"base_weights":[7.6886505E-2,-1.5906547E-1,1.0374772E-1],"categories":[],"categories_nodes":[],"categories_segments":[],"categories_sizes":[],"default_left":[0,0,0],"id":9,"left_children":[1,-1,-1],"loss_changes":[1.7556743E2,0E0,0E0],"parents":[2147483647,0,0],"right_children":[2,-1,-1],"split_conditions":[-5.135012E-1,-1.5906547E-1,1.0374772E-1],"split_indices":[2,0,0],"split_type":[0,0,0],"sum_hessian":[1.07574425E2,3.9079056E1,6.849537E1],"tree_param":{"num_deleted":"0","num_feature":"76","num_nodes":"3","size_leaf_vector":"1"}},{"base_weights":[1.3791685E-2,-1.5311642E-1,1.0311335E-1],"categories":[],"categories_nodes":[],"categories_segments":[],"categories_sizes":[],"default_left":[0,0,0],"id":10,"left_children":[1,-1,-1],"loss_changes":[1.6518054E2,0E0,0E0],"parents":[2147483647,0,0],"right_children":[2,-1,-1],"split_conditions":[-5.135012E-1,-1.5311642E-1,1.0311335E-1],"split_indices":[2,0,0],"split_type":[0,0,0],"sum_hessian":[1.0308901E2,4.0730217E1,6.2358795E1],"tree_param":{"num_deleted":"0","num_feature":"76","num_nodes":"3","size_leaf_vector":"1"}},{"base_weights":[4.4909548E-2,6.157502E-1,-6.2215704E-1,7.503844E-1,-9.452989E-2,-1.1167624E0,7.1916777E-1,8.8057005E-1,2.996377E-2,-1.2534583E0,6.903471E-2,-3.7705924E-2,8.818117E-1,-2.588549E-2,9.167851E-1,3.651386E-1,-7.220965E-2,-1.3255703E0,2.350332E-2,9.391474E-2,1.4826846E-2,9.559009E-2,1.4201815E-2,-3.8316965E-2,6.924228E-2,-1.3688499E-1,-4.854742E-3],"categories":[],"categories_nodes":[],"categories_segments":[],"categories_sizes":[],"default_left":[0,0,0,0,0,0,0,0,0,0,0,0,0,0,0,0,0,0,0,0,0,0,0,0,0,0,0],"id":11,"left_children":[1,3,5,7,-1,9,11,13,15,17,-1,-1,19,-1,21,23,-1,25,-1,-1,-1,-1,-1,-1,-1,-1,-1],"loss_changes":[3.6537956E1,1.1568115E1,3.0180197E1,4.4868793E0,0E0,8.953678E0,2.5678954E0,1.9176598E0,2.381138E0,3.6171036E0,0E0,0E0,3.325367E-1,0E0,1.0669899E0,1.8510517E0,0E0,1.5652695E0,0E0,0E0,0E0,0E0,0E0,0E0,0E0,0E0,0E0],"parents":[2147483647,0,0,1,1,2,2,3,3,5,5,6,6,7,7,8,8,9,9,12,12,14,14,15,15,17,17],"right_children":[2,4,6,8,-1,10,12,14,16,18,-1,-1,20,-1,22,24,-1,26,-1,-1,-1,-1,-1,-1,-1,-1,-1],"split_conditions":[1.4740249E0,1.3727626E0,1.2491476E-1,5.2755743E-1,-9.452989E-2,-5.081019E-2,-3.7157908E-2,-1.3609781E0,1.1629435E0,5.9215706E-2,6.903471E-2,-3.7705924E-2,3.0821454E-4,-2.588549E-2,3.1165376E-1,7.840345E-2,-7.220965E-2,7.456172E-1,2.350332E-2,9.391474E-2,1.4826846E-2,9.559009E-2,1.4201815E-2,-3.8316965E-2,6.924228E-2,-1.3688499E-1,-4.854742E-3],"split_indices":[0,13,19,64,0,10,66,46,42,11,0,0,47,0,74,70,0,3,0,0,0,0,0,0,0,0,0],"split_type":[0,0,0,0,0,0,0,0,0,0,0,0,0,0,0,0,0,0,0,0,0,0,0,0,0,0,0],"sum_hessian":[9.394731E1,5.06665E1,4.3280807E1,4.712175E1,3.5447536E0,3.174314E1,1.153767E1,3.9721466E1,7.400281E0,2.9795668E1,1.947471E0,1.3203233E0,1.0217346E1,1.0342252E0,3.868724E1,5.4747853E0,1.9254954E0,2.8523272E1,1.272397E0,9.216659E0,1.0006877E0,3.660535E1,2.0818932E0,1.6139251E0,3.8608603E0,2.7518726E1,1.0045438E0],"tree_param":{"num_deleted":"0","num_feature":"76","num_nodes":"27","size_leaf_vector":"1"}},{"base_weights":[2.242086E-2,-1.4002387E-1,1.0205652E-1],"categories":[],"categories_nodes":[],"categories_segments":[],"categories_sizes":[],"default_left":[0,0,0],"id":12,"left_children":[1,-1,-1],"loss_changes":[1.2961649E2,0E0,0E0],"parents":[2147483647,0,0],"right_children":[2,-1,-1],"split_conditions":[-5.135012E-1,-1.4002387E-1,1.0205652E-1],"split_indices":[2,0,0],"split_type":[0,0,0],"sum_hessian":[8.92716E1,3.664231E1,5.262929E1],"tree_param":{"num_deleted":"0","num_feature":"76","num_nodes":"3","size_leaf_vector":"1"}},{"base_weights":[1.281794E-2,-1.3488086E-1,1.01519E-1],"categories":[],"categories_nodes":[],"categories_segments":[],"categories_sizes":[],"default_left":[0,0,0],"id":13,"left_children":[1,-1,-1],"loss_changes":[1.1693278E2,0E0,0E0],"parents":[2147483647,0,0],"right_children":[2,-1,-1],"split_conditions":[-5.135012E-1,-1.3488086E-1,1.01519E-1],"split_indices":[2,0,0],"split_type":[0,0,0],"sum_hessian":[8.367079E1,3.533117E1,4.8339626E1],"tree_param":{"num_deleted":"0","num_feature":"76","num_nodes":"3","size_leaf_vector":"1"}},{"base_weights":[2.4047071E-2,6.649012E-1,-6.267653E-1,7.6833624E-1,-6.893474E-2,-1.0163822E0,5.547144E-1,9.028439E-1,7.392608E-2,-1.129666E0,6.288779E-2,-4.597618E-2,7.606095E-1,9.357172E-1,3.1733298E-4,4.5010054E-1,-5.63382E-2,-1.7958716E-2,-1.187439E0,8.985903E-2,-1.2692744E-2,9.795552E-2,3.2817286E-2,-2.0391019E-2,6.808726E-2,-1.2515882E-1,-4.7641598E-2],"categories":[],"categories_nodes":[],"categories_segments":[],"categories_sizes":[],"default_left":[0,0,0,0,0,0,0,0,0,0,0,0,0,0,0,0,0,0,0,0,0,0,0,0,0,0,0],"id":14,"left_children":[1,3,5,7,-1,9,11,13,15,17,-1,-1,19,21,-1,23,-1,-1,25,-1,-1,-1,-1,-1,-1,-1,-1],"loss_changes":[3.2428894E1,6.014778E0,1.833039E1,3.375389E0,0E0,6.185835E0,2.4840558E0,9.074497E-1,1.9483353E0,1.3150024E0,0E0,0E0,1.2004337E0,4.6940804E-1,0E0,8.93654E-1,0E0,0E0,5.9275055E-1,0E0,0E0,0E0,0E0,0E0,0E0,0E0,0E0],"parents":[2147483647,0,0,1,1,2,2,3,3,5,5,6,6,7,7,8,8,9,9,12,12,13,13,15,15,18,18],"right_children":[2,4,6,8,-1,10,12,14,16,18,-1,-1,20,22,-1,24,-1,-1,26,-1,-1,-1,-1,-1,-1,-1,-1],"split_conditions":[1.4740249E0,1.3727626E0,1.2491476E-1,5.2755743E-1,-6.893474E-2,-5.081019E-2,-3.7157908E-2,1.0777289E0,1.985671E-1,3.7532832E-2,6.288779E-2,-4.597618E-2,3.1894393E0,5.911595E-1,3.1733298E-4,5.8521926E-1,-5.63382E-2,-1.7958716E-2,3.7533816E-2,8.985903E-2,-1.2692744E-2,9.795552E-2,3.2817286E-2,-2.0391019E-2,6.808726E-2,-1.2515882E-1,-4.7641598E-2],"split_indices":[0,13,19,64,0,10,66,68,43,7,0,0,51,51,0,64,0,0,7,0,0,0,0,0,0,0,0],"split_type":[0,0,0,0,0,0,0,0,0,0,0,0,0,0,0,0,0,0,0,0,0,0,0,0,0,0,0],"sum_hessian":[7.575381E1,3.8158012E1,3.7595795E1,3.5852325E1,2.3056872E0,2.8377483E1,9.218311E0,2.9783154E1,6.069174E0,2.6842627E1,1.534858E0,1.3472446E0,7.871067E0,2.8694605E1,1.0885473E0,4.0011945E0,2.0679793E0,1.7742081E0,2.5068419E1,6.8012567E0,1.0698102E0,2.619235E1,2.5022547E0,1.0739648E0,2.92723E0,2.2296537E1,2.7718794E0],"tree_param":{"num_deleted":"0","num_feature":"76","num_nodes":"27","size_leaf_vector":"1"}},{"base_weights":[4.0583733E-2,-1.2803577E-1,1.0061435E-1],"categories":[],"categories_nodes":[],"categories_segments":[],"categories_sizes":[],"default_left":[0,0,0],"id":15,"left_children":[1,-1,-1],"loss_changes":[9.324492E1,0E0,0E0],"parents":[2147483647,0,0],"right_children":[2,-1,-1],"split_conditions":[-5.135012E-1,-1.2803577E-1,1.0061435E-1],"split_indices":[2,0,0],"split_type":[0,0,0],"sum_hessian":[7.1097565E1,2.9885902E1,4.1211666E1],"tree_param":{"num_deleted":"0","num_feature":"76","num_nodes":"3","size_leaf_vector":"1"}},{"base_weights":[1.07944785E-2,-1.2537107E-1,1.0001191E-1],"categories":[],"categories_nodes":[],"categories_segments":[],"categories_sizes":[],"default_left":[0,0,0],"id":16,"left_children":[1,-1,-1],"loss_changes":[8.366501E1,0E0,0E0],"parents":[2147483647,0,0],"right_children":[2,-1,-1],"split_conditions":[-5.135012E-1,-1.2537107E-1,1.0001191E-1],"split_indices":[2,0,0],"split_type":[0,0,0],"sum_hessian":[6.48759E1,2.8360147E1,3.6515755E1],"tree_param":{"num_deleted":"0","num_feature":"76","num_nodes":"3","size_leaf_vector":"1"}},{"base_weights":[-1.1960156E-2,-1.2156878E-1,9.951152E-2],"categories":[],"categories_nodes":[],"categories_segments":[],"categories_sizes":[],"default_left":[0,0,0],"id":17,"left_children":[1,-1,-1],"loss_changes":[7.62429E1,0E0,0E0],"parents":[2147483647,0,0],"right_children":[2,-1,-1],"split_conditions":[-5.135012E-1,-1.2156878E-1,9.951152E-2],"split_indices":[2,0,0],"split_type":[0,0,0],"sum_hessian":[6.0896057E1,2.7645296E1,3.325076E1],"tree_param":{"num_deleted":"0","num_feature":"76","num_nodes":"3","size_leaf_vector":"1"}},{"base_weights":[4.621143E-2,-1.1787806E-1,9.905767E-2],"categories":[],"categories_nodes":[],"categories_segments":[],"categories_sizes":[],"default_left":[0,0,0],"id":18,"left_children":[1,-1,-1],"loss_changes":[6.5669426E1,0E0,0E0],"parents":[2147483647,0,0],"right_children":[2,-1,-1],"split_conditions":[-5.135012E-1,-1.1787806E-1,9.905767E-2],"split_indices":[2,0,0],"split_type":[0,0,0],"sum_hessian":[5.475686E1,2.3728714E1,3.1028143E1],"tree_param":{"num_deleted":"0","num_feature":"76","num_nodes":"3","size_leaf_vector":"1"}},{"base_weights":[3.6815643E-2,5.857952E-1,-5.0529176E-1,7.635189E-1,-1.452749E-1,-8.5476637E-1,5.8042836E-1,-2.6717424E-2,8.637766E-1,-6.663878E-2,2.498162E-1,-1.0414571E-1,-1.0689186E-1,7.567162E-2,-2.1583417E-2,3.816549E-2,-4.8793554E-2,9.145253E-1,-2.7883993E-4,-2.9450217E-2,5.658657E-2,-6.4976625E-2,4.620158E-1,9.416485E-2,2.3905082E-2,8.462581E-3,5.8817904E-2],"categories":[],"categories_nodes":[],"categories_segments":[],"categories_sizes":[],"default_left":[0,0,0,0,0,0,0,0,0,0,0,0,0,0,0,0,0,0,0,0,0,0,0,0,0,0,0],"id":19,"left_children":[1,3,5,7,9,11,13,15,17,-1,19,21,-1,-1,-1,-1,-1,23,-1,-1,-1,-1,25,-1,-1,-1,-1],"loss_changes":[1.55304365E1,3.4756622E0,1.0472562E1,1.686244E0,1.3821428E0,3.1510487E0,1.145648E0,8.1407493E-1,8.2311344E-1,0E0,8.695152E-1,2.034072E0,0E0,0E0,0E0,0E0,0E0,9.789181E-2,0E0,0E0,0E0,0E0,1.0920507E-1,0E0,0E0,0E0,0E0],"parents":[2147483647,0,0,1,1,2,2,3,3,4,4,5,5,6,6,7,7,8,8,10,10,11,11,17,17,22,22],"right_children":[2,4,6,8,10,12,14,16,18,-1,20,22,-1,-1,-1,-1,-1,24,-1,-1,-1,-1,26,-1,-1,-1,-1],"split_conditions":[1.4740249E0,5.291809E-1,1.2491476E-1,-2.1930152E-1,-1.07065655E-1,1.2473838E-1,1.2502607E0,-8.122808E-2,8.3144724E-1,-6.663878E-2,6.95759E-2,-4.6930626E-2,-1.0689186E-1,7.567162E-2,-2.1583417E-2,3.816549E-2,-4.8793554E-2,-5.3125378E-2,-2.7883993E-4,-2.9450217E-2,5.658657E-2,-6.4976625E-2,-9.411987E-2,9.416485E-2,2.3905082E-2,8.462581E-3,5.8817904E-2],"split_indices":[0,64,19,75,5,15,70,70,68,0,70,19,0,0,0,0,0,65,0,0,0,0,42,0,0,0,0],"split_type":[0,0,0,0,0,0,0,0,0,0,0,0,0,0,0,0,0,0,0,0,0,0,0,0,0,0,0],"sum_hessian":[5.0189976E1,2.4896887E1,2.5293089E1,1.9992348E1,4.9045396E0,1.9295061E1,5.998029E0,2.3334546E0,1.7658894E1,1.818856E0,3.0856833E0,4.612877E0,1.4682184E1,4.9514685E0,1.0465606E0,1.3291254E0,1.0043292E0,1.6629665E1,1.0292282E0,1.1585464E0,1.927137E0,2.2738528E0,2.3390238E0,1.5608848E1,1.0208175E0,1.0046365E0,1.3343874E0],"tree_param":{"num_deleted":"0","num_feature":"76","num_nodes":"27","size_leaf_vector":"1"}},{"base_weights":[2.8435185E-3,-1.1506752E-1,9.824052E-2],"categories":[],"categories_nodes":[],"categories_segments":[],"categories_sizes":[],"default_left":[0,0,0],"id":20,"left_children":[1,-1,-1],"loss_changes":[5.7455357E1,0E0,0E0],"parents":[2147483647,0,0],"right_children":[2,-1,-1],"split_conditions":[-5.135012E-1,-1.1506752E-1,9.824052E-2],"split_indices":[2,0,0],"split_type":[0,0,0],"sum_hessian":[4.88476E1,2.2351768E1,2.6495829E1],"tree_param":{"num_deleted":"0","num_feature":"76","num_nodes":"3","size_leaf_vector":"1"}},{"base_weights":[6.6991844E-3,4.80735E-1,-4.7906137E-1,7.03406E-1,-2.3532794E-1,-8.1321913E-1,5.616062E-1,-8.491779E-2,8.1827873E-1,-6.911308E-2,9.415229E-2,-1.1731597E-1,-1.01984814E-1,-1.1090746E-2,7.211672E-2,-3.2983426E-2,1.8694341E-2,-1.0635213E-2,8.928448E-1,-3.521457E-2,4.3834884E-2,-6.23351E-2,4.2769533E-1,3.2285765E-2,9.380531E-2,5.2911308E-2,1.1009331E-2],"categories":[],"categories_nodes":[],"categories_segments":[],"categories_sizes":[],"default_left":[0,0,0,0,0,0,0,0,0,0,0,0,0,0,0,0,0,0,0,0,0,0,0,0,0,0,0],"id":21,"left_children":[1,3,5,7,9,11,13,15,17,-1,19,21,-1,-1,-1,-1,-1,-1,23,-1,-1,-1,25,-1,-1,-1,-1],"loss_changes":[1.0574389E1,3.8701882E0,8.346214E0,1.6971455E0,1.0052786E0,2.4084902E0,7.3517776E-1,2.74193E-1,1.1830549E0,0E0,8.4777135E-1,1.6883807E0,0E0,0E0,0E0,0E0,0E0,0E0,7.6208115E-2,0E0,0E0,0E0,4.0798187E-2,0E0,0E0,0E0,0E0],"parents":[2147483647,0,0,1,1,2,2,3,3,4,4,5,5,6,6,7,7,8,8,10,10,11,11,18,18,22,22],"right_children":[2,4,6,8,10,12,14,16,18,-1,20,22,-1,-1,-1,-1,-1,-1,24,-1,-1,-1,26,-1,-1,-1,-1],"split_conditions":[1.4740249E0,5.2226764E-1,1.2491476E-1,-2.1930152E-1,-1.07065655E-1,1.2473838E-1,-1.8599299E0,-1.6431076E-2,-7.540445E-1,-6.911308E-2,7.840345E-2,-4.547965E-2,-1.01984814E-1,-1.1090746E-2,7.211672E-2,-3.2983426E-2,1.8694341E-2,-1.0635213E-2,-1.1342619E-1,-3.521457E-2,4.3834884E-2,-6.23351E-2,2.1798326E-1,3.2285765E-2,9.380531E-2,5.2911308E-2,1.1009331E-2],"split_indices":[0,64,19,75,5,15,52,44,69,0,70,15,0,0,0,0,0,0,5,0,0,0,52,0,0,0,0],"split_type":[0,0,0,0,0,0,0,0,0,0,0,0,0,0,0,0,0,0,0,0,0,0,0,0,0,0,0],"sum_hessian":[4.392197E1,2.2234493E1,2.1687477E1,1.6973877E1,5.2606163E0,1.658167E1,5.1058044E0,2.1919825E0,1.4781895E1,1.7466546E0,3.5139616E0,4.155197E0,1.2426475E1,1.0375755E0,4.068229E0,1.0409544E0,1.151028E0,1.0713024E0,1.3710592E1,1.5199907E0,1.9939709E0,2.080108E0,2.0750892E0,1.6058289E0,1.2104763E1,1.0680678E0,1.0070213E0],"tree_param":{"num_deleted":"0","num_feature":"76","num_nodes":"27","size_leaf_vector":"1"}},{"base_weights":[1.4003408E-2,-1.10717334E-1,9.732159E-2],"categories":[],"categories_nodes":[],"categories_segments":[],"categories_sizes":[],"default_left":[0,0,0],"id":22,"left_children":[1,-1,-1],"loss_changes":[4.6499256E1,0E0,0E0],"parents":[2147483647,0,0],"right_children":[2,-1,-1],"split_conditions":[-5.135012E-1,-1.10717334E-1,9.732159E-2],"split_indices":[2,0,0],"split_type":[0,0,0],"sum_hessian":[4.123523E1,1.8941353E1,2.2293877E1],"tree_param":{"num_deleted":"0","num_feature":"76","num_nodes":"3","size_leaf_vector":"1"}},{"base_weights":[1.0871085E-2,4.9036545E-1,-4.7195134E-1,6.090984E-1,-5.591693E-2,-7.8754574E-1,5.2265763E-1,-1.1208084E-2,7.9339427E-1,-8.9378875E-1,1.6378103E-2,7.787714E-2,-2.4480894E-2,6.033937E-2,-4.1073048E-1,1.3292714E-2,8.5454357E-1,-1.6110543E-2,-9.9304475E-2,-4.4151144E-3,-5.5103835E-2,1.55207515E-2,9.124086E-2],"categories":[],"categories_nodes":[],"categories_segments":[],"categories_sizes":[],"default_left":[0,0,0,0,0,0,0,0,0,0,0,0,0,0,0,0,0,0,0,0,0,0,0],"id":23,"left_children":[1,3,5,7,-1,9,11,13,15,17,-1,-1,-1,-1,19,-1,21,-1,-1,-1,-1,-1,-1],"loss_changes":[9.3008795E0,2.851036E0,6.6986985E0,2.1326027E0,0E0,1.7234831E0,1.2571093E0,1.5347819E0,4.6538925E-1,8.720331E-1,0E0,0E0,0E0,0E0,1.6964644E-1,0E0,3.8189983E-1,0E0,0E0,0E0,0E0,0E0,0E0],"parents":[2147483647,0,0,1,1,2,2,3,3,5,5,6,6,7,7,8,8,9,9,14,14,16,16],"right_children":[2,4,6,8,-1,10,12,14,16,18,-1,-1,-1,-1,20,-1,22,-1,-1,-1,-1,-1,-1],"split_conditions":[1.4740249E0,1.3727626E0,1.2491476E-1,-1.07065655E-1,-5.591693E-2,-3.454849E-2,1.9231089E0,-2.0384848E-1,-4.2166656E-1,-3.4549896E-2,1.6378103E-2,7.787714E-2,-2.4480894E-2,6.033937E-2,4.2587978E-1,1.3292714E-2,-1.4167795E0,-1.6110543E-2,-9.9304475E-2,-4.4151144E-3,-5.5103835E-2,1.55207515E-2,9.124086E-2],"split_indices":[0,13,19,5,0,6,51,13,44,6,0,0,0,0,42,0,42,0,0,0,0,0,0],"split_type":[0,0,0,0,0,0,0,0,0,0,0,0,0,0,0,0,0,0,0,0,0,0,0],"sum_hessian":[3.8175102E1,1.9145723E1,1.9029377E1,1.7576912E1,1.5688115E0,1.4603727E1,4.42565E0,4.2411513E0,1.3335761E1,1.3191049E1,1.4126782E0,3.3072476E0,1.1184025E0,1.4698039E0,2.7713475E0,1.3990098E0,1.193675E1,1.886739E0,1.130431E1,1.1310226E0,1.6403248E0,1.1935971E0,1.0743154E1],"tree_param":{"num_deleted":"0","num_feature":"76","num_nodes":"23","size_leaf_vector":"1"}},{"base_weights":[3.7209593E-2,-1.06984355E-1,9.6484676E-2],"categories":[],"categories_nodes":[],"categories_segments":[],"categories_sizes":[],"default_left":[0,0,0],"id":24,"left_children":[1,-1,-1],"loss_changes":[3.8561157E1,0E0,0E0],"parents":[2147483647,0,0],"right_children":[2,-1,-1],"split_conditions":[-5.135012E-1,-1.06984355E-1,9.6484676E-2],"split_indices":[2,0,0],"split_type":[0,0,0],"sum_hessian":[3.5544285E1,1.6135132E1,1.9409155E1],"tree_param":{"num_deleted":"0","num_feature":"76","num_nodes":"3","size_leaf_vector":"1"}},{"base_weights":[2.358147E-3,-1.07307486E-1,9.591171E-2],"categories":[],"categories_nodes":[],"categories_segments":[],"categories_sizes":[],"default_left":[0,0,0],"id":25,"left_children":[1,-1,-1],"loss_changes":[3.6416267E1,0E0,0E0],"parents":[2147483647,0,0],"right_children":[2,-1,-1],"split_conditions":[-5.135012E-1,-1.07307486E-1,9.591171E-2],"split_indices":[2,0,0],"split_type":[0,0,0],"sum_hessian":[3.3392094E1,1.5663811E1,1.7728283E1],"tree_param":{"num_deleted":"0","num_feature":"76","num_nodes":"3","size_leaf_vector":"1"}},{"base_weights":[3.6408287E-2,4.7593108E-1,-4.1011846E-1,-1.3089205E-1,6.978106E-1,3.0186498E-1,-6.5294784E-1,5.2942503E-2,-4.507842E-1,7.837907E-1,-4.6888003E-3,6.622494E-2,-1.9448752E-2,-8.946841E-2,1.7302893E-2,-8.056392E-3,-5.7341762E-2,8.504966E-2,9.228348E-3,3.5833573E-1,-5.001075E-2,4.6760585E-2,6.681509E-3],"categories":[],"categories_nodes":[],"categories_segments":[],"categories_sizes":[],"default_left":[0,0,0,0,0,0,0,0,0,0,0,0,0,0,0,0,0,0,0,0,0,0,0],"id":26,"left_children":[1,3,5,7,9,11,13,-1,15,17,-1,-1,-1,-1,19,-1,-1,-1,-1,21,-1,-1,-1],"loss_changes":[6.099905E0,2.1951098E0,2.870236E0,1.3002009E0,7.7945423E-1,9.545025E-1,1.93472E0,0E0,1.3202894E-1,4.0378952E-1,0E0,0E0,0E0,0E0,9.063439E-1,0E0,0E0,0E0,0E0,6.643325E-2,0E0,0E0,0E0],"parents":[2147483647,0,0,1,1,2,2,3,3,4,4,5,5,6,6,8,8,9,9,14,14,19,19],"right_children":[2,4,6,8,10,12,14,-1,16,18,-1,-1,-1,-1,20,-1,-1,-1,-1,22,-1,-1,-1],"split_conditions":[1.4740249E0,-1.07065655E-1,-1.3034153E-1,-2.0384848E-1,8.7942356E-1,-8.379405E-2,-1.2929316E-1,5.2942503E-2,5.0221E-1,4.0910232E-1,-4.6888003E-3,6.622494E-2,-1.9448752E-2,-8.946841E-2,2.1414949E-1,-8.056392E-3,-5.7341762E-2,8.504966E-2,9.228348E-3,-1.974285E-1,-5.001075E-2,4.6760585E-2,6.681509E-3],"split_indices":[0,5,14,13,13,64,14,0,42,43,0,0,0,0,14,0,0,0,0,74,0,0,0],"split_type":[0,0,0,0,0,0,0,0,0,0,0,0,0,0,0,0,0,0,0,0,0,0,0],"sum_hessian":[2.90864E1,1.4624973E1,1.4461426E1,4.0255322E0,1.0599441E1,3.6160214E0,1.0845404E1,1.0999726E0,2.9255595E0,9.455276E0,1.144165E0,1.9013124E0,1.714709E0,7.724569E0,3.1208353E0,1.1402341E0,1.7853255E0,8.413733E0,1.0415431E0,2.0663302E0,1.0545051E0,1.0636293E0,1.0027009E0],"tree_param":{"num_deleted":"0","num_feature":"76","num_nodes":"23","size_leaf_vector":"1"}},{"base_weights":[2.6345307E-3,-1.04059994E-1,9.4941564E-2],"categories":[],"categories_nodes":[],"categories_segments":[],"categories_sizes":[],"default_left":[0,0,0],"id":27,"left_children":[1,-1,-1],"loss_changes":[3.0705465E1,0E0,0E0],"parents":[2147483647,0,0],"right_children":[2,-1,-1],"split_conditions":[-5.135012E-1,-1.04059994E-1,9.4941564E-2],"split_indices":[2,0,0],"split_type":[0,0,0],"sum_hessian":[2.9087132E1,1.3791513E1,1.5295618E1],"tree_param":{"num_deleted":"0","num_feature":"76","num_nodes":"3","size_leaf_vector":"1"}},{"base_weights":[2.50886E-2,4.7720608E-1,-4.2173073E-1,-1.1956282E-1,7.0726764E-1,-6.844369E-1,3.3675873E-1,3.0007033E-2,-4.827496E-2,8.118537E-1,-1.5367576E-3,-7.942524E-1,1.5107234E-2,-2.1035945E-2,6.6276036E-2,2.348922E-2,8.564993E-2,-1.548374E-2,-9.045326E-2],"categories":[],"categories_nodes":[],"categories_segments":[],"categories_sizes":[],"default_left":[0,0,0,0,0,0,0,0,0,0,0,0,0,0,0,0,0,0,0],"id":28,"left_children":[1,3,5,7,9,11,13,-1,-1,15,-1,17,-1,-1,-1,-1,-1,-1,-1],"loss_changes":[5.5916452E0,1.9698906E0,3.0103781E0,8.575488E-1,7.724695E-1,1.1009879E0,8.990934E-1,0E0,0E0,2.5570393E-2,0E0,5.3756714E-1,0E0,0E0,0E0,0E0,0E0,0E0,0E0],"parents":[2147483647,0,0,1,1,2,2,3,3,4,4,5,5,6,6,9,9,11,11],"right_children":[2,4,6,8,10,12,14,-1,-1,16,-1,18,-1,-1,-1,-1,-1,-1,-1],"split_conditions":[1.4740249E0,-1.07065655E-1,1.2636416E-1,4.309247E-1,1.0081235E0,-3.454864E-2,7.607305E-2,3.0007033E-2,-4.827496E-2,-4.4585887E-2,-1.5367576E-3,-3.4549896E-2,1.5107234E-2,-2.1035945E-2,6.6276036E-2,2.348922E-2,8.564993E-2,-1.548374E-2,-9.045326E-2],"split_indices":[0,5,15,42,46,6,75,0,0,66,0,6,0,0,0,0,0,0,0],"split_type":[0,0,0,0,0,0,0,0,0,0,0,0,0,0,0,0,0,0,0],"sum_hessian":[2.5683155E1,1.2732088E1,1.2951066E1,3.6762831E0,9.055805E0,9.691874E0,3.259192E0,1.7862269E0,1.8900564E0,7.8030214E0,1.2527835E0,8.609642E0,1.0822319E0,1.3493499E0,1.9098423E0,1.0101373E0,6.7928843E0,1.6201134E0,6.9895287E0],"tree_param":{"num_deleted":"0","num_feature":"76","num_nodes":"19","size_leaf_vector":"1"}},{"base_weights":[3.2429483E-2,7.399416E-1,-1.9174567E-1,8.182669E-2,1.650936E-2,5.475838E-1,-3.7077343E-1,7.033157E-2,2.236276E-3,-6.270422E-1,1.526447E-1,6.049053E-3,-7.133627E-1,-4.6096496E-2,5.6032814E-2,-2.8731301E-2,-8.1880145E-2],"categories":[],"categories_nodes":[],"categories_segments":[],"categories_sizes":[],"default_left":[0,0,0,0,0,0,0,0,0,0,0,0,0,0,0,0,0],"id":29,"left_children":[1,3,5,-1,-1,7,9,-1,-1,11,13,-1,15,-1,-1,-1,-1],"loss_changes":[4.168939E0,1.4924264E-1,2.860197E0,0E0,0E0,3.373971E-1,2.343555E0,0E0,0E0,7.224331E-1,1.8373559E0,0E0,2.2507143E-1,0E0,0E0,0E0,0E0],"parents":[2147483647,0,0,1,1,2,2,5,5,6,6,9,9,10,10,12,12],"right_children":[2,4,6,-1,-1,8,10,-1,-1,12,14,-1,16,-1,-1,-1,-1],"split_conditions":[-1.296171E-1,-8.984292E-2,3.753351E-2,8.182669E-2,1.650936E-2,1.094633E-1,3.7533816E-2,7.033157E-2,2.236276E-3,-1.8439174E-1,-1.0681836E-1,6.049053E-3,6.592059E-1,-4.6096496E-2,5.6032814E-2,-2.8731301E-2,-8.1880145E-2],"split_indices":[18,65,7,0,0,13,7,0,0,65,15,0,63,0,0,0,0],"split_type":[0,0,0,0,0,0,0,0,0,0,0,0,0,0,0,0,0],"sum_hessian":[2.4390226E1,5.314998E0,1.9075228E1,4.3049793E0,1.0100188E0,3.3172703E0,1.5757958E1,2.2970834E0,1.020187E0,1.0445703E1,5.312256E0,1.1985588E0,9.247144E0,2.068395E0,3.243861E0,2.5734496E0,6.673694E0],"tree_param":{"num_deleted":"0","num_feature":"76","num_nodes":"17","size_leaf_vector":"1"}},{"base_weights":[-1.18373865E-2,-1.0201635E-1,9.354355E-2],"categories":[],"categories_nodes":[],"categories_segments":[],"categories_sizes":[],"default_left":[0,0,0],"id":30,"left_children":[1,-1,-1],"loss_changes":[2.5114143E1,0E0,0E0],"parents":[2147483647,0,0],"right_children":[2,-1,-1],"split_conditions":[-5.135012E-1,-1.0201635E-1,9.354355E-2],"split_indices":[2,0,0],"split_type":[0,0,0],"sum_hessian":[2.4294033E1,1.1730517E1,1.2563516E1],"tree_param":{"num_deleted":"0","num_feature":"76","num_nodes":"3","size_leaf_vector":"1"}},{"base_weights":[3.003994E-2,3.967835E-1,-4.1338286E-1,5.236033E-1,-2.8274084E-2,3.5645735E-2,-5.3831047E-1,6.4756143E-1,-9.439296E-3,-1.1086998E-1,-7.537281E-2,7.4058145E-1,2.716777E-1,-4.3056034E-2,3.0549869E-2,7.9789124E-2,2.105238E-2,4.6953425E-4,4.035955E-2],"categories":[],"categories_nodes":[],"categories_segments":[],"categories_sizes":[],"default_left":[0,0,0,0,0,0,0,0,0,0,0,0,0,0,0,0,0,0,0],"id":31,"left_children":[1,3,5,7,-1,-1,9,11,-1,13,-1,15,17,-1,-1,-1,-1,-1,-1],"loss_changes":[3.8421683E0,1.2588184E0,1.223668E0,9.20094E-1,0E0,0E0,8.030331E-1,1.2980223E-1,0E0,7.1708226E-1,0E0,4.4951916E-2,1.1987293E-1,0E0,0E0,0E0,0E0,0E0,0E0],"parents":[2147483647,0,0,1,1,2,2,3,3,6,6,7,7,9,9,11,11,12,12],"right_children":[2,4,6,8,-1,-1,10,12,-1,14,-1,16,18,-1,-1,-1,-1,-1,-1],"split_conditions":[8.30154E-2,2.7501816E-1,-1.9448566E-1,8.054198E-1,-2.8274084E-2,3.5645735E-2,-1.6384585E-1,7.887271E-1,-9.439296E-3,-8.5517716E-1,-7.537281E-2,9.537097E-1,1.1635374E0,-4.3056034E-2,3.0549869E-2,7.9789124E-2,2.105238E-2,4.6953425E-4,4.035955E-2],"split_indices":[43,74,65,46,0,0,74,63,0,58,0,67,63,0,0,0,0,0,0],"split_type":[0,0,0,0,0,0,0,0,0,0,0,0,0,0,0,0,0,0,0],"sum_hessian":[2.1617691E1,1.188943E1,9.728261E0,1.0212858E1,1.6765718E0,1.0995022E0,8.628759E0,8.46675E0,1.7461075E0,3.3989995E0,5.2297597E0,6.0093694E0,2.457381E0,1.9034414E0,1.495558E0,4.9670424E0,1.0423273E0,1.1551396E0,1.3022416E0],"tree_param":{"num_deleted":"0","num_feature":"76","num_nodes":"19","size_leaf_vector":"1"}},{"base_weights":[1.9287646E-2,-6.1591756E-1,2.4760243E-1,-1.7822042E-2,-7.257636E-2,4.7947657E-1,-2.9137966E-1,7.2112936E-1,5.8557585E-2,6.478747E-2,-5.56588E-2,1.7775757E-2,7.911047E-2,5.7948213E-2,-2.5124565E-1,-1.5898507E-2,2.899203E-2,-4.461107E-2,1.6864782E-2],"categories":[],"categories_nodes":[],"categories_segments":[],"categories_sizes":[],"default_left":[0,0,0,0,0,0,0,0,0,0,0,0,0,0,0,0,0,0,0],"id":32,"left_children":[1,3,5,-1,-1,7,9,11,13,15,-1,-1,-1,-1,17,-1,-1,-1,-1],"loss_changes":[3.3073306E0,1.6097307E-1,2.2286937E0,0E0,0E0,1.1849957E0,5.6974214E-1,1.474495E-1,1.0313939E0,2.1270324E-1,0E0,0E0,0E0,0E0,4.139326E-1,0E0,0E0,0E0,0E0],"parents":[2147483647,0,0,1,1,2,2,5,5,6,6,7,7,8,8,9,9,14,14],"right_children":[2,4,6,-1,-1,8,10,12,14,16,-1,-1,-1,-1,18,-1,-1,-1,-1],"split_conditions":[-2.1930152E-1,-8.122808E-2,5.2226764E-1,-1.7822042E-2,-7.257636E-2,1.4740249E0,6.566928E-1,-9.788891E-2,-9.4163895E-2,7.714475E-1,-5.56588E-2,1.7775757E-2,7.911047E-2,5.7948213E-2,1.2636416E-1,-1.5898507E-2,2.899203E-2,-4.461107E-2,1.6864782E-2],"split_indices":[75,70,64,0,0,0,63,48,43,64,0,0,0,0,15,0,0,0,0],"split_type":[0,0,0,0,0,0,0,0,0,0,0,0,0,0,0,0,0,0,0],"sum_hessian":[2.0753422E1,5.0383434E0,1.5715078E1,1.5368803E0,3.5014634E0,1.1065165E1,4.6499133E0,6.576386E0,4.488779E0,2.3071666E0,2.342747E0,1.1541886E0,5.4221973E0,1.3493702E0,3.1394086E0,1.3044325E0,1.0027341E0,2.101638E0,1.0377706E0],"tree_param":{"num_deleted":"0","num_feature":"76","num_nodes":"19","size_leaf_vector":"1"}},{"base_weights":[2.0188997E-3,-9.892731E-2,9.219692E-2],"categories":[],"categories_nodes":[],"categories_segments":[],"categories_sizes":[],"default_left":[0,0,0],"id":33,"left_children":[1,-1,-1],"loss_changes":[2.045614E1,0E0,0E0],"parents":[2147483647,0,0],"right_children":[2,-1,-1],"split_conditions":[-5.135012E-1,-9.892731E-2,9.219692E-2],"split_indices":[2,0,0],"split_type":[0,0,0],"sum_hessian":[2.0431318E1,9.798064E0,1.0633254E1],"tree_param":{"num_deleted":"0","num_feature":"76","num_nodes":"3","size_leaf_vector":"1"}},{"base_weights":[5.867832E-3,-9.739068E-2,9.134252E-2],"categories":[],"categories_nodes":[],"categories_segments":[],"categories_sizes":[],"default_left":[0,0,0],"id":34,"left_children":[1,-1,-1],"loss_changes":[1.8288712E1,0E0,0E0],"parents":[2147483647,0,0],"right_children":[2,-1,-1],"split_conditions":[-5.135012E-1,-9.739068E-2,9.134252E-2],"split_indices":[2,0,0],"split_type":[0,0,0],"sum_hessian":[1.8567123E1,8.893178E0,9.673945E0],"tree_param":{"num_deleted":"0","num_feature":"76","num_nodes":"3","size_leaf_vector":"1"}},{"base_weights":[-6.4736544E-3,-9.631796E-2,9.058294E-2],"categories":[],"categories_nodes":[],"categories_segments":[],"categories_sizes":[],"default_left":[0,0,0],"id":35,"left_children":[1,-1,-1],"loss_changes":[1.6943987E1,0E0,0E0],"parents":[2147483647,0,0],"right_children":[2,-1,-1],"split_conditions":[-5.135012E-1,-9.631796E-2,9.058294E-2],"split_indices":[2,0,0],"split_type":[0,0,0],"sum_hessian":[1.7413618E1,8.472736E0,8.940883E0],"tree_param":{"num_deleted":"0","num_feature":"76","num_nodes":"3","size_leaf_vector":"1"}},{"base_weights":[-2.7811365E-2,-9.518724E-2,8.957871E-2],"categories":[],"categories_nodes":[],"categories_segments":[],"categories_sizes":[],"default_left":[0,0,0],"id":36,"left_children":[1,-1,-1],"loss_changes":[1.5465333E1,0E0,0E0],"parents":[2147483647,0,0],"right_children":[2,-1,-1],"split_conditions":[-5.135012E-1,-9.518724E-2,8.957871E-2],"split_indices":[2,0,0],"split_type":[0,0,0],"sum_hessian":[1.6121641E1,8.043501E0,8.078141E0],"tree_param":{"num_deleted":"0","num_feature":"76","num_nodes":"3","size_leaf_vector":"1"}},{"base_weights":[1.51650645E-2,-9.2417166E-2,8.8586815E-2],"categories":[],"categories_nodes":[],"categories_segments":[],"categories_sizes":[],"default_left":[0,0,0],"id":37,"left_children":[1,-1,-1],"loss_changes":[1.3211456E1,0E0,0E0],"parents":[2147483647,0,0],"right_children":[2,-1,-1],"split_conditions":[-5.135012E-1,-9.2417166E-2,8.8586815E-2],"split_indices":[2,0,0],"split_type":[0,0,0],"sum_hessian":[1.4152238E1,6.7782645E0,7.3739734E0],"tree_param":{"num_deleted":"0","num_feature":"76","num_nodes":"3","size_leaf_vector":"1"}},{"base_weights":[3.60682E-2,-9.02354E-2,8.75042E-2],"categories":[],"categories_nodes":[],"categories_segments":[],"categories_sizes":[],"default_left":[0,0,0],"id":38,"left_children":[1,-1,-1],"loss_changes":[1.1532043E1,0E0,0E0],"parents":[2147483647,0,0],"right_children":[2,-1,-1],"split_conditions":[-5.135012E-1,-9.02354E-2,8.75042E-2],"split_indices":[2,0,0],"split_type":[0,0,0],"sum_hessian":[1.2644467E1,5.9328346E0,6.7116327E0],"tree_param":{"num_deleted":"0","num_feature":"76","num_nodes":"3","size_leaf_vector":"1"}},{"base_weights":[-1.6314965E-2,-9.024417E-2,8.610691E-2],"categories":[],"categories_nodes":[],"categories_segments":[],"categories_sizes":[],"default_left":[0,0,0],"id":39,"left_children":[1,-1,-1],"loss_changes":[1.07882185E1,0E0,0E0],"parents":[2147483647,0,0],"right_children":[2,-1,-1],"split_conditions":[-5.135012E-1,-9.024417E-2,8.610691E-2],"split_indices":[2,0,0],"split_type":[0,0,0],"sum_hessian":[1.1876521E1,5.8946123E0,5.981909E0],"tree_param":{"num_deleted":"0","num_feature":"76","num_nodes":"3","size_leaf_vector":"1"}},{"base_weights":[-2.0366183E-2,-8.88716E-2,8.521213E-2],"categories":[],"categories_nodes":[],"categories_segments":[],"categories_sizes":[],"default_left":[0,0,0],"id":40,"left_children":[1,-1,-1],"loss_changes":[9.982128E0,0E0,0E0],"parents":[2147483647,0,0],"right_children":[2,-1,-1],"split_conditions":[-5.135012E-1,-8.88716E-2,8.521213E-2],"split_indices":[2,0,0],"split_type":[0,0,0],"sum_hessian":[1.11760025E1,5.5919604E0,5.584042E0],"tree_param":{"num_deleted":"0","num_feature":"76","num_nodes":"3","size_leaf_vector":"1"}},{"base_weights":[-1.5197604E-2,-8.709111E-2,8.398756E-2],"categories":[],"categories_nodes":[],"categories_segments":[],"categories_sizes":[],"default_left":[0,0,0],"id":41,"left_children":[1,-1,-1],"loss_changes":[8.924301E0,0E0,0E0],"parents":[2147483647,0,0],"right_children":[2,-1,-1],"split_conditions":[-5.135012E-1,-8.709111E-2,8.398756E-2],"split_indices":[2,0,0],"split_type":[0,0,0],"sum_hessian":[1.0197034E1,5.087351E0,5.1096826E0],"tree_param":{"num_deleted":"0","num_feature":"76","num_nodes":"3","size_leaf_vector":"1"}},{"base_weights":[-2.5861675E-2,2.9490393E-1,-3.499511E-1,4.933012E-1,-1.7605724E-2,-5.4302883E-1,1.8799653E-2,5.8480985E-2,9.290648E-3,-8.497729E-3,-6.7396834E-2],"categories":[],"categories_nodes":[],"categories_segments":[],"categories_sizes":[],"default_left":[0,0,0,0,0,0,0,0,0,0,0],"id":42,"left_children":[1,3,5,7,-1,9,-1,-1,-1,-1,-1],"loss_changes":[1.2128268E0,6.3879764E-1,7.010567E-1,1.0758853E-1,0E0,2.126739E-1,0E0,0E0,0E0,0E0,0E0],"parents":[2147483647,0,0,1,1,2,2,3,3,5,5],"right_children":[2,4,6,8,-1,10,-1,-1,-1,-1,-1],"split_conditions":[1.4740249E0,5.2226764E-1,1.2491476E-1,1.8316022E-1,-1.7605724E-2,1.2473838E-1,1.8799653E-2,5.8480985E-2,9.290648E-3,-8.497729E-3,-6.7396834E-2],"split_indices":[0,64,19,43,0,15,0,0,0,0,0],"split_type":[0,0,0,0,0,0,0,0,0,0,0],"sum_hessian":[9.673911E0,4.907146E0,4.7667656E0,3.4192967E0,1.4878492E0,3.5008209E0,1.2659445E0,2.4083052E0,1.0109915E0,1.1448605E0,2.3559604E0],"tree_param":{"num_deleted":"0","num_feature":"76","num_nodes":"11","size_leaf_vector":"1"}},{"base_weights":[5.553346E-3,-8.506622E-2,8.288082E-2],"categories":[],"categories_nodes":[],"categories_segments":[],"categories_sizes":[],"default_left":[0,0,0],"id":43,"left_children":[1,-1,-1],"loss_changes":[7.9302726E0,0E0,0E0],"parents":[2147483647,0,0],"right_children":[2,-1,-1],"split_conditions":[-5.135012E-1,-8.506622E-2,8.288082E-2],"split_indices":[2,0,0],"split_type":[0,0,0],"sum_hessian":[9.250257E0,4.5180383E0,4.7322183E0],"tree_param":{"num_deleted":"0","num_feature":"76","num_nodes":"3","size_leaf_vector":"1"}},{"base_weights":[-3.3441786E-2,-8.442982E-2,8.102574E-2],"categories":[],"categories_nodes":[],"categories_segments":[],"categories_sizes":[],"default_left":[0,0,0],"id":44,"left_children":[1,-1,-1],"loss_changes":[7.222605E0,0E0,0E0],"parents":[2147483647,0,0],"right_children":[2,-1,-1],"split_conditions":[-5.135012E-1,-8.442982E-2,8.102574E-2],"split_indices":[2,0,0],"split_type":[0,0,0],"sum_hessian":[8.557558E0,4.3633504E0,4.1942077E0],"tree_param":{"num_deleted":"0","num_feature":"76","num_nodes":"3","size_leaf_vector":"1"}},{"base_weights":[-1.3252592E-2,-8.251204E-2,8.0022104E-2],"categories":[],"categories_nodes":[],"categories_segments":[],"categories_sizes":[],"default_left":[0,0,0],"id":45,"left_children":[1,-1,-1],"loss_changes":[6.5192604E0,0E0,0E0],"parents":[2147483647,0,0],"right_children":[2,-1,-1],"split_conditions":[-5.135012E-1,-8.251204E-2,8.0022104E-2],"split_indices":[2,0,0],"split_type":[0,0,0],"sum_hessian":[7.8714247E0,3.932435E0,3.9389899E0],"tree_param":{"num_deleted":"0","num_feature":"76","num_nodes":"3","size_leaf_vector":"1"}},{"base_weights":[1.6175404E-2,-3.8611576E-1,2.5944382E-1,-4.0963683E-3,-5.1000535E-2,-1.2010995E-2,4.6148907E-2],"categories":[],"categories_nodes":[],"categories_segments":[],"categories_sizes":[],"default_left":[0,0,0,0,0,0,0],"id":46,"left_children":[1,3,5,-1,-1,-1,-1],"loss_changes":[8.984891E-1,1.2773782E-1,4.9112508E-1,0E0,0E0,0E0,0E0],"parents":[2147483647,0,0,1,1,2,2],"right_children":[2,4,6,-1,-1,-1,-1],"split_conditions":[-1.07065655E-1,-3.454886E-2,-1.8505463E-1,-4.0963683E-3,-5.1000535E-2,-1.2010995E-2,4.6148907E-2],"split_indices":[5,6,44,0,0,0,0],"split_type":[0,0,0,0,0,0,0],"sum_hessian":[7.157318E0,2.4758399E0,4.6814785E0,1.0054202E0,1.4704195E0,1.7672068E0,2.9142716E0],"tree_param":{"num_deleted":"0","num_feature":"76","num_nodes":"7","size_leaf_vector":"1"}},{"base_weights":[1.8785088E-3,-8.013144E-2,7.83995E-2],"categories":[],"categories_nodes":[],"categories_segments":[],"categories_sizes":[],"default_left":[0,0,0],"id":47,"left_children":[1,-1,-1],"loss_changes":[5.678921E0,0E0,0E0],"parents":[2147483647,0,0],"right_children":[2,-1,-1],"split_conditions":[-5.135012E-1,-8.013144E-2,7.83995E-2],"split_indices":[2,0,0],"split_type":[0,0,0],"sum_hessian":[7.0400686E0,3.461126E0,3.5789425E0],"tree_param":{"num_deleted":"0","num_feature":"76","num_nodes":"3","size_leaf_vector":"1"}},{"base_weights":[3.2198872E-2,-7.718321E-2,7.717917E-2],"categories":[],"categories_nodes":[],"categories_segments":[],"categories_sizes":[],"default_left":[0,0,0],"id":48,"left_children":[1,-1,-1],"loss_changes":[4.9812293E0,0E0,0E0],"parents":[2147483647,0,0],"right_children":[2,-1,-1],"split_conditions":[-5.135012E-1,-7.718321E-2,7.717917E-2],"split_indices":[2,0,0],"split_type":[0,0,0],"sum_hessian":[6.3749175E0,3.0335135E0,3.3414037E0],"tree_param":{"num_deleted":"0","num_feature":"76","num_nodes":"3","size_leaf_vector":"1"}},{"base_weights":[-3.859563E-3,-7.725832E-2,7.574921E-2],"categories":[],"categories_nodes":[],"categories_segments":[],"categories_sizes":[],"default_left":[0,0,0],"id":49,"left_children":[1,-1,-1],"loss_changes":[4.76209E0,0E0,0E0],"parents":[2147483647,0,0],"right_children":[2,-1,-1],"split_conditions":[-5.135012E-1,-7.725832E-2,7.574921E-2],"split_indices":[2,0,0],"split_type":[0,0,0],"sum_hessian":[6.1366568E0,3.0462046E0,3.0904522E0],"tree_param":{"num_deleted":"0","num_feature":"76","num_nodes":"3","size_leaf_vector":"1"}},{"base_weights":[5.893824E-3,-7.509473E-2,7.411628E-2],"categories":[],"categories_nodes":[],"categories_segments":[],"categories_sizes":[],"default_left":[0,0,0],"id":50,"left_children":[1,-1,-1],"loss_changes":[4.2140393E0,0E0,0E0],"parents":[2147483647,0,0],"right_children":[2,-1,-1],"split_conditions":[-5.135012E-1,-7.509473E-2,7.411628E-2],"split_indices":[2,0,0],"split_type":[0,0,0],"sum_hessian":[5.5724797E0,2.7354503E0,2.8370292E0],"tree_param":{"num_deleted":"0","num_feature":"76","num_nodes":"3","size_leaf_vector":"1"}},{"base_weights":[2.5185354E-2,-3.2880064E-2,2.5104174E-1,4.060201E-2,-1.1988252E-2],"categories":[],"categories_nodes":[],"categories_segments":[],"categories_sizes":[],"default_left":[0,0,0,0,0],"id":51,"left_children":[1,-1,3,-1,-1],"loss_changes":[5.67316E-1,0E0,2.9406255E-1,0E0,0E0],"parents":[2147483647,0,0,2,2],"right_children":[2,-1,4,-1,-1],"split_conditions":[-1.07065655E-1,-3.2880064E-2,4.8964724E-1,4.060201E-2,-1.1988252E-2],"split_indices":[5,0,64,0,0],"split_type":[0,0,0,0,0],"sum_hessian":[5.063456E0,1.7947457E0,3.2687106E0,2.238719E0,1.0299915E0],"tree_param":{"num_deleted":"0","num_feature":"76","num_nodes":"5","size_leaf_vector":"1"}},{"base_weights":[-1.1792773E-2,-7.403433E-2,7.232235E-2],"categories":[],"categories_nodes":[],"categories_segments":[],"categories_sizes":[],"default_left":[0,0,0],"id":52,"left_children":[1,-1,-1],"loss_changes":[3.8557365E0,0E0,0E0],"parents":[2147483647,0,0],"right_children":[2,-1,-1],"split_conditions":[-5.135012E-1,-7.403433E-2,7.232235E-2],"split_indices":[2,0,0],"split_type":[0,0,0],"sum_hessian":[5.2004185E0,2.6080568E0,2.5923617E0],"tree_param":{"num_deleted":"0","num_feature":"76","num_nodes":"3","size_leaf_vector":"1"}},{"base_weights":[4.603494E-3,-7.161871E-2,7.087704E-2],"categories":[],"categories_nodes":[],"categories_segments":[],"categories_sizes":[],"default_left":[0,0,0],"id":53,"left_children":[1,-1,-1],"loss_changes":[3.431619E0,0E0,0E0],"parents":[2147483647,0,0],"right_children":[2,-1,-1],"split_conditions":[-5.135012E-1,-7.161871E-2,7.087704E-2],"split_indices":[2,0,0],"split_type":[0,0,0],"sum_hessian":[4.760944E0,2.3442657E0,2.4166782E0],"tree_param":{"num_deleted":"0","num_feature":"76","num_nodes":"3","size_leaf_vector":"1"}},{"base_weights":[-4.9099936E-3,-7.0369296E-2,6.9208324E-2],"categories":[],"categories_nodes":[],"categories_segments":[],"categories_sizes":[],"default_left":[0,0,0],"id":54,"left_children":[1,-1,-1],"loss_changes":[3.1430032E0,0E0,0E0],"parents":[2147483647,0,0],"right_children":[2,-1,-1],"split_conditions":[-5.135012E-1,-7.0369296E-2,6.9208324E-2],"split_indices":[2,0,0],"split_type":[0,0,0],"sum_hessian":[4.4532504E0,2.21897E0,2.23428E0],"tree_param":{"num_deleted":"0","num_feature":"76","num_nodes":"3","size_leaf_vector":"1"}},{"base_weights":[-3.7057842E-3,-6.81818E-2,6.7219615E-2],"categories":[],"categories_nodes":[],"categories_segments":[],"categories_sizes":[],"default_left":[0,0,0],"id":55,"left_children":[1,-1,-1],"loss_changes":[2.7793152E0,0E0,0E0],"parents":[2147483647,0,0],"right_children":[2,-1,-1],"split_conditions":[-5.135012E-1,-6.81818E-2,6.7219615E-2],"split_indices":[2,0,0],"split_type":[0,0,0],"sum_hessian":[4.063956E0,2.0242918E0,2.039664E0],"tree_param":{"num_deleted":"0","num_feature":"76","num_nodes":"3","size_leaf_vector":"1"}},{"base_weights":[2.6699753E-2,-6.5533176E-2,6.644777E-2],"categories":[],"categories_nodes":[],"categories_segments":[],"categories_sizes":[],"default_left":[0,0,0],"id":56,"left_children":[1,-1,-1],"loss_changes":[2.517953E0,0E0,0E0],"parents":[2147483647,0,0],"right_children":[2,-1,-1],"split_conditions":[-5.135012E-1,-6.5533176E-2,6.644777E-2],"split_indices":[2,0,0],"split_type":[0,0,0],"sum_hessian":[3.7875242E0,1.8169636E0,1.9705607E0],"tree_param":{"num_deleted":"0","num_feature":"76","num_nodes":"3","size_leaf_vector":"1"}},{"base_weights":[2.1883773E-2,-6.40011E-2,6.47374E-2],"categories":[],"categories_nodes":[],"categories_segments":[],"categories_sizes":[],"default_left":[0,0,0],"id":57,"left_children":[1,-1,-1],"loss_changes":[2.291047E0,0E0,0E0],"parents":[2147483647,0,0],"right_children":[2,-1,-1],"split_conditions":[-5.135012E-1,-6.40011E-2,6.47374E-2],"split_indices":[2,0,0],"split_type":[0,0,0],"sum_hessian":[3.533047E0,1.7052907E0,1.8277563E0],"tree_param":{"num_deleted":"0","num_feature":"76","num_nodes":"3","size_leaf_vector":"1"}},{"base_weights":[2.0446781E-2,-6.231298E-2,6.30485E-2],"categories":[],"categories_nodes":[],"categories_segments":[],"categories_sizes":[],"default_left":[0,0,0],"id":58,"left_children":[1,-1,-1],"loss_changes":[2.0772736E0,0E0,0E0],"parents":[2147483647,0,0],"right_children":[2,-1,-1],"split_conditions":[-5.135012E-1,-6.231298E-2,6.30485E-2],"split_indices":[2,0,0],"split_type":[0,0,0],"sum_hessian":[3.2903035E0,1.5906953E0,1.6996081E0],"tree_param":{"num_deleted":"0","num_feature":"76","num_nodes":"3","size_leaf_vector":"1"}},{"base_weights":[-1.9939996E-2,2.1266736E-2,-2.4825081E-2],"categories":[],"categories_nodes":[],"categories_segments":[],"categories_sizes":[],"default_left":[0,0,0],"id":59,"left_children":[1,-1,-1],"loss_changes":[2.8150535E-1,0E0,0E0],"parents":[2147483647,0,0],"right_children":[2,-1,-1],"split_conditions":[1.4740249E0,2.1266736E-2,-2.4825081E-2],"split_indices":[0,0,0],"split_type":[0,0,0],"sum_hessian":[3.3066158E0,1.671836E0,1.6347798E0],"tree_param":{"num_deleted":"0","num_feature":"76","num_nodes":"3","size_leaf_vector":"1"}},{"base_weights":[-6.896338E-3,-6.275339E-2,6.1806947E-2],"categories":[],"categories_nodes":[],"categories_segments":[],"categories_sizes":[],"default_left":[0,0,0],"id":60,"left_children":[1,-1,-1],"loss_changes":[2.0295177E0,0E0,0E0],"parents":[2147483647,0,0],"right_children":[2,-1,-1],"split_conditions":[-5.135012E-1,-6.275339E-2,6.1806947E-2],"split_indices":[2,0,0],"split_type":[0,0,0],"sum_hessian":[3.2324166E0,1.6197627E0,1.6126539E0],"tree_param":{"num_deleted":"0","num_feature":"76","num_nodes":"3","size_leaf_vector":"1"}},{"base_weights":[1.6767584E-2,-5.937462E-2,6.004083E-2],"categories":[],"categories_nodes":[],"categories_segments":[],"categories_sizes":[],"default_left":[0,0,0],"id":61,"left_children":[1,-1,-1],"loss_changes":[1.7509414E0,0E0,0E0],"parents":[2147483647,0,0],"right_children":[2,-1,-1],"split_conditions":[-5.135012E-1,-5.937462E-2,6.004083E-2],"split_indices":[2,0,0],"split_type":[0,0,0],"sum_hessian":[2.9134727E0,1.4154917E0,1.497981E0],"tree_param":{"num_deleted":"0","num_feature":"76","num_nodes":"3","size_leaf_vector":"1"}},{"base_weights":[-1.3004726E-2,-6.0040217E-2,5.8791917E-2],"categories":[],"categories_nodes":[],"categories_segments":[],"categories_sizes":[],"default_left":[0,0,0],"id":62,"left_children":[1,-1,-1],"loss_changes":[1.7220746E0,0E0,0E0],"parents":[2147483647,0,0],"right_children":[2,-1,-1],"split_conditions":[-5.135012E-1,-6.0040217E-2,5.8791917E-2],"split_indices":[2,0,0],"split_type":[0,0,0],"sum_hessian":[2.87864E0,1.4561425E0,1.4224973E0],"tree_param":{"num_deleted":"0","num_feature":"76","num_nodes":"3","size_leaf_vector":"1"}},{"base_weights":[1.0522249E-3,-5.7587463E-2,5.7278335E-2],"categories":[],"categories_nodes":[],"categories_segments":[],"categories_sizes":[],"default_left":[0,0,0],"id":63,"left_children":[1,-1,-1],"loss_changes":[1.5354515E0,0E0,0E0],"parents":[2147483647,0,0],"right_children":[2,-1,-1],"split_conditions":[-5.135012E-1,-5.7587463E-2,5.7278335E-2],"split_indices":[2,0,0],"split_type":[0,0,0],"sum_hessian":[2.6550279E0,1.317902E0,1.337126E0],"tree_param":{"num_deleted":"0","num_feature":"76","num_nodes":"3","size_leaf_vector":"1"}},{"base_weights":[-1.0224953E-3,-5.631548E-2,5.5913877E-2],"categories":[],"categories_nodes":[],"categories_segments":[],"categories_sizes":[],"default_left":[0,0,0],"id":64,"left_children":[1,-1,-1],"loss_changes":[1.423435E0,0E0,0E0],"parents":[2147483647,0,0],"right_children":[2,-1,-1],"split_conditions":[-5.135012E-1,-5.631548E-2,5.5913877E-2],"split_indices":[2,0,0],"split_type":[0,0,0],"sum_hessian":[2.520505E0,1.2553717E0,1.2651333E0],"tree_param":{"num_deleted":"0","num_feature":"76","num_nodes":"3","size_leaf_vector":"1"}},{"base_weights":[-1.6305355E-2,-5.5859324E-2,5.442887E-2],"categories":[],"categories_nodes":[],"categories_segments":[],"categories_sizes":[],"default_left":[0,0,0],"id":65,"left_children":[1,-1,-1],"loss_changes":[1.3459715E0,0E0,0E0],"parents":[2147483647,0,0],"right_children":[2,-1,-1],"split_conditions":[-5.135012E-1,-5.5859324E-2,5.442887E-2],"split_indices":[2,0,0],"split_type":[0,0,0],"sum_hessian":[2.427382E0,1.2356508E0,1.1917313E0],"tree_param":{"num_deleted":"0","num_feature":"76","num_nodes":"3","size_leaf_vector":"1"}},{"base_weights":[-1.5065516E-2,-5.458788E-2,5.3238153E-2],"categories":[],"categories_nodes":[],"categories_segments":[],"categories_sizes":[],"default_left":[0,0,0],"id":66,"left_children":[1,-1,-1],"loss_changes":[1.2527366E0,0E0,0E0],"parents":[2147483647,0,0],"right_children":[2,-1,-1],"split_conditions":[-5.135012E-1,-5.458788E-2,5.3238153E-2],"split_indices":[2,0,0],"split_type":[0,0,0],"sum_hessian":[2.3108976E0,1.1747278E0,1.1361699E0],"tree_param":{"num_deleted":"0","num_feature":"76","num_nodes":"3","size_leaf_vector":"1"}},{"base_weights":[-1.6204068E-2,-5.326519E-2,5.184392E-2],"categories":[],"categories_nodes":[],"categories_segments":[],"categories_sizes":[],"default_left":[0,0,0],"id":67,"left_children":[1,-1,-1],"loss_changes":[1.1571643E0,0E0,0E0],"parents":[2147483647,0,0],"right_children":[2,-1,-1],"split_conditions":[-5.135012E-1,-5.326519E-2,5.184392E-2],"split_indices":[2,0,0],"split_type":[0,0,0],"sum_hessian":[2.1907558E0,1.1162345E0,1.0745213E0],"tree_param":{"num_deleted":"0","num_feature":"76","num_nodes":"3","size_leaf_vector":"1"}},{"base_weights":[9.151155E-3,-1.413767E-2,1.5496867E-2],"categories":[],"categories_nodes":[],"categories_segments":[],"categories_sizes":[],"default_left":[0,0,0],"id":68,"left_children":[1,-1,-1],"loss_changes":[8.8024884E-2,0E0,0E0],"parents":[2147483647,0,0],"right_children":[2,-1,-1],"split_conditions":[3.746686E-2,-1.413767E-2,1.5496867E-2],"split_indices":[44,0,0],"split_type":[0,0,0],"sum_hessian":[2.01217E0,1.0050788E0,1.0070914E0],"tree_param":{"num_deleted":"0","num_feature":"76","num_nodes":"3","size_leaf_vector":"1"}},{"base_weights":[-9.5210755E-3,-5.1293965E-2,5.036971E-2],"categories":[],"categories_nodes":[],"categories_segments":[],"categories_sizes":[],"default_left":[0,0,0],"id":69,"left_children":[1,-1,-1],"loss_changes":[1.0454785E0,0E0,0E0],"parents":[2147483647,0,0],"right_children":[2,-1,-1],"split_conditions":[-5.135012E-1,-5.1293965E-2,5.036971E-2],"split_indices":[2,0,0],"split_type":[0,0,0],"sum_hessian":[2.04653E0,1.0334024E0,1.0131274E0],"tree_param":{"num_deleted":"0","num_feature":"76","num_nodes":"3","size_leaf_vector":"1"}},{"base_weights":[2.2692151E-2],"categories":[],"categories_nodes":[],"categories_segments":[],"categories_sizes":[],"default_left":[0],"id":70,"left_children":[-1],"loss_changes":[0E0],"parents":[2147483647],"right_children":[-1],"split_conditions":[2.2692152E-3],"split_indices":[0],"split_type":[0],"sum_hessian":[1.8822455E0],"tree_param":{"num_deleted":"0","num_feature":"76","num_nodes":"1","size_leaf_vector":"1"}},{"base_weights":[4.985546E-3],"categories":[],"categories_nodes":[],"categories_segments":[],"categories_sizes":[],"default_left":[0],"id":71,"left_children":[-1],"loss_changes":[0E0],"parents":[2147483647],"right_children":[-1],"split_conditions":[4.985546E-4],"split_indices":[0],"split_type":[0],"sum_hessian":[1.9344047E0],"tree_param":{"num_deleted":"0","num_feature":"76","num_nodes":"1","size_leaf_vector":"1"}},{"base_weights":[-6.5610674E-3],"categories":[],"categories_nodes":[],"categories_segments":[],"categories_sizes":[],"default_left":[0],"id":72,"left_children":[-1],"loss_changes":[0E0],"parents":[2147483647],"right_children":[-1],"split_conditions":[-6.5610674E-4],"split_indices":[0],"split_type":[0],"sum_hessian":[1.9462677E0],"tree_param":{"num_deleted":"0","num_feature":"76","num_nodes":"1","size_leaf_vector":"1"}},{"base_weights":[-5.8839335E-3],"categories":[],"categories_nodes":[],"categories_segments":[],"categories_sizes":[],"default_left":[0],"id":73,"left_children":[-1],"loss_changes":[0E0],"parents":[2147483647],"right_children":[-1],"split_conditions":[-5.8839336E-4],"split_indices":[0],"split_type":[0],"sum_hessian":[1.9088222E0],"tree_param":{"num_deleted":"0","num_feature":"76","num_nodes":"1","size_leaf_vector":"1"}},{"base_weights":[-1.51834125E-2],"categories":[],"categories_nodes":[],"categories_segments":[],"categories_sizes":[],"default_left":[0],"id":74,"left_children":[-1],"loss_changes":[0E0],"parents":[2147483647],"right_children":[-1],"split_conditions":[-1.5183412E-3],"split_indices":[0],"split_type":[0],"sum_hessian":[1.9736867E0],"tree_param":{"num_deleted":"0","num_feature":"76","num_nodes":"1","size_leaf_vector":"1"}},{"base_weights":[-2.0537363E-2],"categories":[],"categories_nodes":[],"categories_segments":[],"categories_sizes":[],"default_left":[0],"id":75,"left_children":[-1],"loss_changes":[0E0],"parents":[2147483647],"right_children":[-1],"split_conditions":[-2.0537365E-3],"split_indices":[0],"split_type":[0],"sum_hessian":[1.973777E0],"tree_param":{"num_deleted":"0","num_feature":"76","num_nodes":"1","size_leaf_vector":"1"}},{"base_weights":[1.9180162E-2],"categories":[],"categories_nodes":[],"categories_segments":[],"categories_sizes":[],"default_left":[0],"id":76,"left_children":[-1],"loss_changes":[0E0],"parents":[2147483647],"right_children":[-1],"split_conditions":[1.9180162E-3],"split_indices":[0],"split_type":[0],"sum_hessian":[1.8752279E0],"tree_param":{"num_deleted":"0","num_feature":"76","num_nodes":"1","size_leaf_vector":"1"}},{"base_weights":[-3.623991E-4],"categories":[],"categories_nodes":[],"categories_segments":[],"categories_sizes":[],"default_left":[0],"id":77,"left_children":[-1],"loss_changes":[0E0],"parents":[2147483647],"right_children":[-1],"split_conditions":[-3.623991E-5],"split_indices":[0],"split_type":[0],"sum_hessian":[1.9380376E0],"tree_param":{"num_deleted":"0","num_feature":"76","num_nodes":"1","size_leaf_vector":"1"}},{"base_weights":[-2.9420035E-2,-1.279823E-2,8.388047E-3],"categories":[],"categories_nodes":[],"categories_segments":[],"categories_sizes":[],"default_left":[0,0,0],"id":78,"left_children":[1,-1,-1],"loss_changes":[4.4245712E-2,0E0,0E0],"parents":[2147483647,0,0],"right_children":[2,-1,-1],"split_conditions":[1.475885E-1,-1.279823E-2,8.388047E-3],"split_indices":[66,0,0],"split_type":[0,0,0],"sum_hessian":[2.0008087E0,1.0006988E0,1.0001099E0],"tree_param":{"num_deleted":"0","num_feature":"76","num_nodes":"3","size_leaf_vector":"1"}},{"base_weights":[-1.8304901E-3],"categories":[],"categories_nodes":[],"categories_segments":[],"categories_sizes":[],"default_left":[0],"id":79,"left_children":[-1],"loss_changes":[0E0],"parents":[2147483647],"right_children":[-1],"split_conditions":[-1.8304901E-4],"split_indices":[0],"split_type":[0],"sum_hessian":[1.9087311E0],"tree_param":{"num_deleted":"0","num_feature":"76","num_nodes":"1","size_leaf_vector":"1"}},{"base_weights":[-5.6474674E-3],"categories":[],"categories_nodes":[],"categories_segments":[],"categories_sizes":[],"default_left":[0],"id":80,"left_children":[-1],"loss_changes":[0E0],"parents":[2147483647],"right_children":[-1],"split_conditions":[-5.6474673E-4],"split_indices":[0],"split_type":[0],"sum_hessian":[1.9069752E0],"tree_param":{"num_deleted":"0","num_feature":"76","num_nodes":"1","size_leaf_vector":"1"}},{"base_weights":[-1.5568661E-2],"categories":[],"categories_nodes":[],"categories_segments":[],"categories_sizes":[],"default_left":[0],"id":81,"left_children":[-1],"loss_changes":[0E0],"parents":[2147483647],"right_children":[-1],"split_conditions":[-1.5568661E-3],"split_indices":[0],"split_type":[0],"sum_hessian":[1.9637294E0],"tree_param":{"num_deleted":"0","num_feature":"76","num_nodes":"1","size_leaf_vector":"1"}},{"base_weights":[1.4888599E-2],"categories":[],"categories_nodes":[],"categories_segments":[],"categories_sizes":[],"default_left":[0],"id":82,"left_children":[-1],"loss_changes":[0E0],"parents":[2147483647],"right_children":[-1],"split_conditions":[1.4888599E-3],"split_indices":[0],"split_type":[0],"sum_hessian":[1.9391782E0],"tree_param":{"num_deleted":"0","num_feature":"76","num_nodes":"1","size_leaf_vector":"1"}},{"base_weights":[-7.645994E-3],"categories":[],"categories_nodes":[],"categories_segments":[],"categories_sizes":[],"default_left":[0],"id":83,"left_children":[-1],"loss_changes":[0E0],"parents":[2147483647],"right_children":[-1],"split_conditions":[-7.645994E-4],"split_indices":[0],"split_type":[0],"sum_hessian":[1.9842799E0],"tree_param":{"num_deleted":"0","num_feature":"76","num_nodes":"1","size_leaf_vector":"1"}},{"base_weights":[2.6005577E-2],"categories":[],"categories_nodes":[],"categories_segments":[],"categories_sizes":[],"default_left":[0],"id":84,"left_children":[-1],"loss_changes":[0E0],"parents":[2147483647],"right_children":[-1],"split_conditions":[2.6005579E-3],"split_indices":[0],"split_type":[0],"sum_hessian":[1.8553435E0],"tree_param":{"num_deleted":"0","num_feature":"76","num_nodes":"1","size_leaf_vector":"1"}},{"base_weights":[4.39569E-3],"categories":[],"categories_nodes":[],"categories_segments":[],"categories_sizes":[],"default_left":[0],"id":85,"left_children":[-1],"loss_changes":[0E0],"parents":[2147483647],"right_children":[-1],"split_conditions":[4.3956898E-4],"split_indices":[0],"split_type":[0],"sum_hessian":[1.8842386E0],"tree_param":{"num_deleted":"0","num_feature":"76","num_nodes":"1","size_leaf_vector":"1"}},{"base_weights":[7.2141457E-3],"categories":[],"categories_nodes":[],"categories_segments":[],"categories_sizes":[],"default_left":[0],"id":86,"left_children":[-1],"loss_changes":[0E0],"parents":[2147483647],"right_children":[-1],"split_conditions":[7.214146E-4],"split_indices":[0],"split_type":[0],"sum_hessian":[1.9440087E0],"tree_param":{"num_deleted":"0","num_feature":"76","num_nodes":"1","size_leaf_vector":"1"}},{"base_weights":[4.99316E-3],"categories":[],"categories_nodes":[],"categories_segments":[],"categories_sizes":[],"default_left":[0],"id":87,"left_children":[-1],"loss_changes":[0E0],"parents":[2147483647],"right_children":[-1],"split_conditions":[4.9931597E-4],"split_indices":[0],"split_type":[0],"sum_hessian":[1.9240074E0],"tree_param":{"num_deleted":"0","num_feature":"76","num_nodes":"1","size_leaf_vector":"1"}},{"base_weights":[-1.3125E-2],"categories":[],"categories_nodes":[],"categories_segments":[],"categories_sizes":[],"default_left":[0],"id":88,"left_children":[-1],"loss_changes":[0E0],"parents":[2147483647],"right_children":[-1],"split_conditions":[-1.3125E-3],"split_indices":[0],"split_type":[0],"sum_hessian":[1.9575344E0],"tree_param":{"num_deleted":"0","num_feature":"76","num_nodes":"1","size_leaf_vector":"1"}},{"base_weights":[-6.030036E-3],"categories":[],"categories_nodes":[],"categories_segments":[],"categories_sizes":[],"default_left":[0],"id":89,"left_children":[-1],"loss_changes":[0E0],"parents":[2147483647],"right_children":[-1],"split_conditions":[-6.030036E-4],"split_indices":[0],"split_type":[0],"sum_hessian":[1.9696501E0],"tree_param":{"num_deleted":"0","num_feature":"76","num_nodes":"1","size_leaf_vector":"1"}},{"base_weights":[-2.0542E-2],"categories":[],"categories_nodes":[],"categories_segments":[],"categories_sizes":[],"default_left":[0],"id":90,"left_children":[-1],"loss_changes":[0E0],"parents":[2147483647],"right_children":[-1],"split_conditions":[-2.0542E-3],"split_indices":[0],"split_type":[0],"sum_hessian":[1.9911789E0],"tree_param":{"num_deleted":"0","num_feature":"76","num_nodes":"1","size_leaf_vector":"1"}},{"base_weights":[-1.42611675E-2],"categories":[],"categories_nodes":[],"categories_segments":[],"categories_sizes":[],"default_left":[0],"id":91,"left_children":[-1],"loss_changes":[0E0],"parents":[2147483647],"right_children":[-1],"split_conditions":[-1.4261168E-3],"split_indices":[0],"split_type":[0],"sum_hessian":[1.9797264E0],"tree_param":{"num_deleted":"0","num_feature":"76","num_nodes":"1","size_leaf_vector":"1"}},{"base_weights":[-7.904821E-3],"categories":[],"categories_nodes":[],"categories_segments":[],"categories_sizes":[],"default_left":[0],"id":92,"left_children":[-1],"loss_changes":[0E0],"parents":[2147483647],"right_children":[-1],"split_conditions":[-7.904821E-4],"split_indices":[0],"split_type":[0],"sum_hessian":[1.9438394E0],"tree_param":{"num_deleted":"0","num_feature":"76","num_nodes":"1","size_leaf_vector":"1"}},{"base_weights":[-1.1748349E-2],"categories":[],"categories_nodes":[],"categories_segments":[],"categories_sizes":[],"default_left":[0],"id":93,"left_children":[-1],"loss_changes":[0E0],"parents":[2147483647],"right_children":[-1],"split_conditions":[-1.1748349E-3],"split_indices":[0],"split_type":[0],"sum_hessian":[1.9202307E0],"tree_param":{"num_deleted":"0","num_feature":"76","num_nodes":"1","size_leaf_vector":"1"}},{"base_weights":[2.0835482E-2],"categories":[],"categories_nodes":[],"categories_segments":[],"categories_sizes":[],"default_left":[0],"id":94,"left_children":[-1],"loss_changes":[0E0],"parents":[2147483647],"right_children":[-1],"split_conditions":[2.083548E-3],"split_indices":[0],"split_type":[0],"sum_hessian":[1.8889201E0],"tree_param":{"num_deleted":"0","num_feature":"76","num_nodes":"1","size_leaf_vector":"1"}},{"base_weights":[2.0170543E-2],"categories":[],"categories_nodes":[],"categories_segments":[],"categories_sizes":[],"default_left":[0],"id":95,"left_children":[-1],"loss_changes":[0E0],"parents":[2147483647],"right_children":[-1],"split_conditions":[2.0170545E-3],"split_indices":[0],"split_type":[0],"sum_hessian":[1.8856068E0],"tree_param":{"num_deleted":"0","num_feature":"76","num_nodes":"1","size_leaf_vector":"1"}},{"base_weights":[1.5840545E-2],"categories":[],"categories_nodes":[],"categories_segments":[],"categories_sizes":[],"default_left":[0],"id":96,"left_children":[-1],"loss_changes":[0E0],"parents":[2147483647],"right_children":[-1],"split_conditions":[1.5840546E-3],"split_indices":[0],"split_type":[0],"sum_hessian":[1.9096949E0],"tree_param":{"num_deleted":"0","num_feature":"76","num_nodes":"1","size_leaf_vector":"1"}},{"base_weights":[5.4260683E-3],"categories":[],"categories_nodes":[],"categories_segments":[],"categories_sizes":[],"default_left":[0],"id":97,"left_children":[-1],"loss_changes":[0E0],"parents":[2147483647],"right_children":[-1],"split_conditions":[5.4260687E-4],"split_indices":[0],"split_type":[0],"sum_hessian":[1.9360726E0],"tree_param":{"num_deleted":"0","num_feature":"76","num_nodes":"1","size_leaf_vector":"1"}},{"base_weights":[3.4642786E-2],"categories":[],"categories_nodes":[],"categories_segments":[],"categories_sizes":[],"default_left":[0],"id":98,"left_children":[-1],"loss_changes":[0E0],"parents":[2147483647],"right_children":[-1],"split_conditions":[3.4642785E-3],"split_indices":[0],"split_type":[0],"sum_hessian":[1.8303347E0],"tree_param":{"num_deleted":"0","num_feature":"76","num_nodes":"1","size_leaf_vector":"1"}},{"base_weights":[5.433391E-3],"categories":[],"categories_nodes":[],"categories_segments":[],"categories_sizes":[],"default_left":[0],"id":99,"left_children":[-1],"loss_changes":[0E0],"parents":[2147483647],"right_children":[-1],"split_conditions":[5.433391E-4],"split_indices":[0],"split_type":[0],"sum_hessian":[1.8800578E0],"tree_param":{"num_deleted":"0","num_feature":"76","num_nodes":"1","size_leaf_vector":"1"}},{"base_weights":[1.9554752E-3],"categories":[],"categories_nodes":[],"categories_segments":[],"categories_sizes":[],"default_left":[0],"id":100,"left_children":[-1],"loss_changes":[0E0],"parents":[2147483647],"right_children":[-1],"split_conditions":[1.9554752E-4],"split_indices":[0],"split_type":[0],"sum_hessian":[1.918969E0],"tree_param":{"num_deleted":"0","num_feature":"76","num_nodes":"1","size_leaf_vector":"1"}},{"base_weights":[1.8286697E-3],"categories":[],"categories_nodes":[],"categories_segments":[],"categories_sizes":[],"default_left":[0],"id":101,"left_children":[-1],"loss_changes":[0E0],"parents":[2147483647],"right_children":[-1],"split_conditions":[1.8286698E-4],"split_indices":[0],"split_type":[0],"sum_hessian":[1.9160612E0],"tree_param":{"num_deleted":"0","num_feature":"76","num_nodes":"1","size_leaf_vector":"1"}},{"base_weights":[-2.7980493E-2],"categories":[],"categories_nodes":[],"categories_segments":[],"categories_sizes":[],"default_left":[0],"id":102,"left_children":[-1],"loss_changes":[0E0],"parents":[2147483647],"right_children":[-1],"split_conditions":[-2.7980495E-3],"split_indices":[0],"split_type":[0],"sum_hessian":[1.9911559E0],"tree_param":{"num_deleted":"0","num_feature":"76","num_nodes":"1","size_leaf_vector":"1"}},{"base_weights":[-9.266886E-3],"categories":[],"categories_nodes":[],"categories_segments":[],"categories_sizes":[],"default_left":[0],"id":103,"left_children":[-1],"loss_changes":[0E0],"parents":[2147483647],"right_children":[-1],"split_conditions":[-9.266886E-4],"split_indices":[0],"split_type":[0],"sum_hessian":[1.9665905E0],"tree_param":{"num_deleted":"0","num_feature":"76","num_nodes":"1","size_leaf_vector":"1"}},{"base_weights":[2.1253303E-3],"categories":[],"categories_nodes":[],"categories_segments":[],"categories_sizes":[],"default_left":[0],"id":104,"left_children":[-1],"loss_changes":[0E0],"parents":[2147483647],"right_children":[-1],"split_conditions":[2.1253304E-4],"split_indices":[0],"split_type":[0],"sum_hessian":[1.9096919E0],"tree_param":{"num_deleted":"0","num_feature":"76","num_nodes":"1","size_leaf_vector":"1"}},{"base_weights":[-3.0463511E-2,-1.6980484E-2,1.2311823E-2],"categories":[],"categories_nodes":[],"categories_segments":[],"categories_sizes":[],"default_left":[0,0,0],"id":105,"left_children":[1,-1,-1],"loss_changes":[8.554597E-2,0E0,0E0],"parents":[2147483647,0,0],"right_children":[2,-1,-1],"split_conditions":[-9.5607005E-2,-1.6980484E-2,1.2311823E-2],"split_indices":[5,0,0],"split_type":[0,0,0],"sum_hessian":[2.0205164E0,1.0039881E0,1.0165282E0],"tree_param":{"num_deleted":"0","num_feature":"76","num_nodes":"3","size_leaf_vector":"1"}},{"base_weights":[-2.6232101E-2],"categories":[],"categories_nodes":[],"categories_segments":[],"categories_sizes":[],"default_left":[0],"id":106,"left_children":[-1],"loss_changes":[0E0],"parents":[2147483647],"right_children":[-1],"split_conditions":[-2.6232102E-3],"split_indices":[0],"split_type":[0],"sum_hessian":[1.9427861E0],"tree_param":{"num_deleted":"0","num_feature":"76","num_nodes":"1","size_leaf_vector":"1"}},{"base_weights":[-7.044436E-3],"categories":[],"categories_nodes":[],"categories_segments":[],"categories_sizes":[],"default_left":[0],"id":107,"left_children":[-1],"loss_changes":[0E0],"parents":[2147483647],"right_children":[-1],"split_conditions":[-7.044436E-4],"split_indices":[0],"split_type":[0],"sum_hessian":[1.9165314E0],"tree_param":{"num_deleted":"0","num_feature":"76","num_nodes":"1","size_leaf_vector":"1"}},{"base_weights":[-2.2941414E-2],"categories":[],"categories_nodes":[],"categories_segments":[],"categories_sizes":[],"default_left":[0],"id":108,"left_children":[-1],"loss_changes":[0E0],"parents":[2147483647],"right_children":[-1],"split_conditions":[-2.2941416E-3],"split_indices":[0],"split_type":[0],"sum_hessian":[1.9730657E0],"tree_param":{"num_deleted":"0","num_feature":"76","num_nodes":"1","size_leaf_vector":"1"}},{"base_weights":[-1.463662E-2],"categories":[],"categories_nodes":[],"categories_segments":[],"categories_sizes":[],"default_left":[0],"id":109,"left_children":[-1],"loss_changes":[0E0],"parents":[2147483647],"right_children":[-1],"split_conditions":[-1.463662E-3],"split_indices":[0],"split_type":[0],"sum_hessian":[1.9732763E0],"tree_param":{"num_deleted":"0","num_feature":"76","num_nodes":"1","size_leaf_vector":"1"}},{"base_weights":[-8.307409E-3],"categories":[],"categories_nodes":[],"categories_segments":[],"categories_sizes":[],"default_left":[0],"id":110,"left_children":[-1],"loss_changes":[0E0],"parents":[2147483647],"right_children":[-1],"split_conditions":[-8.3074084E-4],"split_indices":[0],"split_type":[0],"sum_hessian":[1.9690614E0],"tree_param":{"num_deleted":"0","num_feature":"76","num_nodes":"1","size_leaf_vector":"1"}},{"base_weights":[-7.0177238E-3],"categories":[],"categories_nodes":[],"categories_segments":[],"categories_sizes":[],"default_left":[0],"id":111,"left_children":[-1],"loss_changes":[0E0],"parents":[2147483647],"right_children":[-1],"split_conditions":[-7.017724E-4],"split_indices":[0],"split_type":[0],"sum_hessian":[1.9577507E0],"tree_param":{"num_deleted":"0","num_feature":"76","num_nodes":"1","size_leaf_vector":"1"}},{"base_weights":[-6.0831015E-3],"categories":[],"categories_nodes":[],"categories_segments":[],"categories_sizes":[],"default_left":[0],"id":112,"left_children":[-1],"loss_changes":[0E0],"parents":[2147483647],"right_children":[-1],"split_conditions":[-6.0831016E-4],"split_indices":[0],"split_type":[0],"sum_hessian":[1.9516765E0],"tree_param":{"num_deleted":"0","num_feature":"76","num_nodes":"1","size_leaf_vector":"1"}},{"base_weights":[-4.5359796E-3],"categories":[],"categories_nodes":[],"categories_segments":[],"categories_sizes":[],"default_left":[0],"id":113,"left_children":[-1],"loss_changes":[0E0],"parents":[2147483647],"right_children":[-1],"split_conditions":[-4.5359795E-4],"split_indices":[0],"split_type":[0],"sum_hessian":[1.9467355E0],"tree_param":{"num_deleted":"0","num_feature":"76","num_nodes":"1","size_leaf_vector":"1"}},{"base_weights":[-1.4682759E-2],"categories":[],"categories_nodes":[],"categories_segments":[],"categories_sizes":[],"default_left":[0],"id":114,"left_children":[-1],"loss_changes":[0E0],"parents":[2147483647],"right_children":[-1],"split_conditions":[-1.4682759E-3],"split_indices":[0],"split_type":[0],"sum_hessian":[1.9961003E0],"tree_param":{"num_deleted":"0","num_feature":"76","num_nodes":"1","size_leaf_vector":"1"}},{"base_weights":[-1.4821932E-2],"categories":[],"categories_nodes":[],"categories_segments":[],"categories_sizes":[],"default_left":[0],"id":115,"left_children":[-1],"loss_changes":[0E0],"parents":[2147483647],"right_children":[-1],"split_conditions":[-1.4821932E-3],"split_indices":[0],"split_type":[0],"sum_hessian":[1.9749104E0],"tree_param":{"num_deleted":"0","num_feature":"76","num_nodes":"1","size_leaf_vector":"1"}},{"base_weights":[4.5088273E-3],"categories":[],"categories_nodes":[],"categories_segments":[],"categories_sizes":[],"default_left":[0],"id":116,"left_children":[-1],"loss_changes":[0E0],"parents":[2147483647],"right_children":[-1],"split_conditions":[4.5088274E-4],"split_indices":[0],"split_type":[0],"sum_hessian":[1.9330624E0],"tree_param":{"num_deleted":"0","num_feature":"76","num_nodes":"1","size_leaf_vector":"1"}},{"base_weights":[-1.4294176E-2],"categories":[],"categories_nodes":[],"categories_segments":[],"categories_sizes":[],"default_left":[0],"id":117,"left_children":[-1],"loss_changes":[0E0],"parents":[2147483647],"right_children":[-1],"split_conditions":[-1.4294176E-3],"split_indices":[0],"split_type":[0],"sum_hessian":[1.9713027E0],"tree_param":{"num_deleted":"0","num_feature":"76","num_nodes":"1","size_leaf_vector":"1"}},{"base_weights":[3.333899E-2],"categories":[],"categories_nodes":[],"categories_segments":[],"categories_sizes":[],"default_left":[0],"id":118,"left_children":[-1],"loss_changes":[0E0],"parents":[2147483647],"right_children":[-1],"split_conditions":[3.333899E-3],"split_indices":[0],"split_type":[0],"sum_hessian":[1.8815768E0],"tree_param":{"num_deleted":"0","num_feature":"76","num_nodes":"1","size_leaf_vector":"1"}},{"base_weights":[-2.770826E-3],"categories":[],"categories_nodes":[],"categories_segments":[],"categories_sizes":[],"default_left":[0],"id":119,"left_children":[-1],"loss_changes":[0E0],"parents":[2147483647],"right_children":[-1],"split_conditions":[-2.770826E-4],"split_indices":[0],"split_type":[0],"sum_hessian":[1.9801896E0],"tree_param":{"num_deleted":"0","num_feature":"76","num_nodes":"1","size_leaf_vector":"1"}},{"base_weights":[2.32632E-2],"categories":[],"categories_nodes":[],"categories_segments":[],"categories_sizes":[],"default_left":[0],"id":120,"left_children":[-1],"loss_changes":[0E0],"parents":[2147483647],"right_children":[-1],"split_conditions":[2.32632E-3],"split_indices":[0],"split_type":[0],"sum_hessian":[1.8814516E0],"tree_param":{"num_deleted":"0","num_feature":"76","num_nodes":"1","size_leaf_vector":"1"}},{"base_weights":[-4.7860312E-4],"categories":[],"categories_nodes":[],"categories_segments":[],"categories_sizes":[],"default_left":[0],"id":121,"left_children":[-1],"loss_changes":[0E0],"parents":[2147483647],"right_children":[-1],"split_conditions":[-4.7860314E-5],"split_indices":[0],"split_type":[0],"sum_hessian":[1.9335483E0],"tree_param":{"num_deleted":"0","num_feature":"76","num_nodes":"1","size_leaf_vector":"1"}},{"base_weights":[-1.9039923E-2,1.1789376E-2,-1.46464845E-2],"categories":[],"categories_nodes":[],"categories_segments":[],"categories_sizes":[],"default_left":[0,0,0],"id":122,"left_children":[1,-1,-1],"loss_changes":[6.964656E-2,0E0,0E0],"parents":[2147483647,0,0],"right_children":[2,-1,-1],"split_conditions":[5.1088727E-1,1.1789376E-2,-1.46464845E-2],"split_indices":[63,0,0],"split_type":[0,0,0],"sum_hessian":[2.00189E0,1.0009958E0,1.0008942E0],"tree_param":{"num_deleted":"0","num_feature":"76","num_nodes":"3","size_leaf_vector":"1"}},{"base_weights":[9.2303865E-3],"categories":[],"categories_nodes":[],"categories_segments":[],"categories_sizes":[],"default_left":[0],"id":123,"left_children":[-1],"loss_changes":[0E0],"parents":[2147483647],"right_children":[-1],"split_conditions":[9.2303863E-4],"split_indices":[0],"split_type":[0],"sum_hessian":[1.9165488E0],"tree_param":{"num_deleted":"0","num_feature":"76","num_nodes":"1","size_leaf_vector":"1"}},{"base_weights":[-1.1021946E-2],"categories":[],"categories_nodes":[],"categories_segments":[],"categories_sizes":[],"default_left":[0],"id":124,"left_children":[-1],"loss_changes":[0E0],"parents":[2147483647],"right_children":[-1],"split_conditions":[-1.1021945E-3],"split_indices":[0],"split_type":[0],"sum_hessian":[1.9543288E0],"tree_param":{"num_deleted":"0","num_feature":"76","num_nodes":"1","size_leaf_vector":"1"}},{"base_weights":[4.3881023E-3],"categories":[],"categories_nodes":[],"categories_segments":[],"categories_sizes":[],"default_left":[0],"id":125,"left_children":[-1],"loss_changes":[0E0],"parents":[2147483647],"right_children":[-1],"split_conditions":[4.3881024E-4],"split_indices":[0],"split_type":[0],"sum_hessian":[1.8542751E0],"tree_param":{"num_deleted":"0","num_feature":"76","num_nodes":"1","size_leaf_vector":"1"}},{"base_weights":[1.0550975E-2],"categories":[],"categories_nodes":[],"categories_segments":[],"categories_sizes":[],"default_left":[0],"id":126,"left_children":[-1],"loss_changes":[0E0],"parents":[2147483647],"right_children":[-1],"split_conditions":[1.0550976E-3],"split_indices":[0],"split_type":[0],"sum_hessian":[1.9308239E0],"tree_param":{"num_deleted":"0","num_feature":"76","num_nodes":"1","size_leaf_vector":"1"}},{"base_weights":[-1.2028795E-2],"categories":[],"categories_nodes":[],"categories_segments":[],"categories_sizes":[],"default_left":[0],"id":127,"left_children":[-1],"loss_changes":[0E0],"parents":[2147483647],"right_children":[-1],"split_conditions":[-1.2028795E-3],"split_indices":[0],"split_type":[0],"sum_hessian":[1.9758092E0],"tree_param":{"num_deleted":"0","num_feature":"76","num_nodes":"1","size_leaf_vector":"1"}},{"base_weights":[-1.2760571E-2],"categories":[],"categories_nodes":[],"categories_segments":[],"categories_sizes":[],"default_left":[0],"id":128,"left_children":[-1],"loss_changes":[0E0],"parents":[2147483647],"right_children":[-1],"split_conditions":[-1.2760571E-3],"split_indices":[0],"split_type":[0],"sum_hessian":[1.9608968E0],"tree_param":{"num_deleted":"0","num_feature":"76","num_nodes":"1","size_leaf_vector":"1"}},{"base_weights":[-2.2478122E-2],"categories":[],"categories_nodes":[],"categories_segments":[],"categories_sizes":[],"default_left":[0],"id":129,"left_children":[-1],"loss_changes":[0E0],"parents":[2147483647],"right_children":[-1],"split_conditions":[-2.2478122E-3],"split_indices":[0],"split_type":[0],"sum_hessian":[1.9695216E0],"tree_param":{"num_deleted":"0","num_feature":"76","num_nodes":"1","size_leaf_vector":"1"}},{"base_weights":[-1.767702E-2,9.655873E-3,-1.2307564E-2],"categories":[],"categories_nodes":[],"categories_segments":[],"categories_sizes":[],"default_left":[0,0,0],"id":130,"left_children":[1,-1,-1],"loss_changes":[4.803963E-2,0E0,0E0],"parents":[2147483647,0,0],"right_children":[2,-1,-1],"split_conditions":[-3.7462734E-2,9.655873E-3,-1.2307564E-2],"split_indices":[64,0,0],"split_type":[0,0,0],"sum_hessian":[2.0028849E0,1.0013969E0,1.0014879E0],"tree_param":{"num_deleted":"0","num_feature":"76","num_nodes":"3","size_leaf_vector":"1"}},{"base_weights":[2.7844952E-2],"categories":[],"categories_nodes":[],"categories_segments":[],"categories_sizes":[],"default_left":[0],"id":131,"left_children":[-1],"loss_changes":[0E0],"parents":[2147483647],"right_children":[-1],"split_conditions":[2.7844952E-3],"split_indices":[0],"split_type":[0],"sum_hessian":[1.8323916E0],"tree_param":{"num_deleted":"0","num_feature":"76","num_nodes":"1","size_leaf_vector":"1"}},{"base_weights":[-5.6674117E-3],"categories":[],"categories_nodes":[],"categories_segments":[],"categories_sizes":[],"default_left":[0],"id":132,"left_children":[-1],"loss_changes":[0E0],"parents":[2147483647],"right_children":[-1],"split_conditions":[-5.6674116E-4],"split_indices":[0],"split_type":[0],"sum_hessian":[1.934554E0],"tree_param":{"num_deleted":"0","num_feature":"76","num_nodes":"1","size_leaf_vector":"1"}},{"base_weights":[-8.273889E-3],"categories":[],"categories_nodes":[],"categories_segments":[],"categories_sizes":[],"default_left":[0],"id":133,"left_children":[-1],"loss_changes":[0E0],"parents":[2147483647],"right_children":[-1],"split_conditions":[-8.2738895E-4],"split_indices":[0],"split_type":[0],"sum_hessian":[1.89384E0],"tree_param":{"num_deleted":"0","num_feature":"76","num_nodes":"1","size_leaf_vector":"1"}},{"base_weights":[8.1321895E-3],"categories":[],"categories_nodes":[],"categories_segments":[],"categories_sizes":[],"default_left":[0],"id":134,"left_children":[-1],"loss_changes":[0E0],"parents":[2147483647],"right_children":[-1],"split_conditions":[8.1321894E-4],"split_indices":[0],"split_type":[0],"sum_hessian":[1.9377748E0],"tree_param":{"num_deleted":"0","num_feature":"76","num_nodes":"1","size_leaf_vector":"1"}},{"base_weights":[-4.265129E-3],"categories":[],"categories_nodes":[],"categories_segments":[],"categories_sizes":[],"default_left":[0],"id":135,"left_children":[-1],"loss_changes":[0E0],"parents":[2147483647],"right_children":[-1],"split_conditions":[-4.265129E-4],"split_indices":[0],"split_type":[0],"sum_hessian":[1.948317E0],"tree_param":{"num_deleted":"0","num_feature":"76","num_nodes":"1","size_leaf_vector":"1"}},{"base_weights":[2.063962E-3],"categories":[],"categories_nodes":[],"categories_segments":[],"categories_sizes":[],"default_left":[0],"id":136,"left_children":[-1],"loss_changes":[0E0],"parents":[2147483647],"right_children":[-1],"split_conditions":[2.063962E-4],"split_indices":[0],"split_type":[0],"sum_hessian":[1.922919E0],"tree_param":{"num_deleted":"0","num_feature":"76","num_nodes":"1","size_leaf_vector":"1"}},{"base_weights":[-1.4676411E-2],"categories":[],"categories_nodes":[],"categories_segments":[],"categories_sizes":[],"default_left":[0],"id":137,"left_children":[-1],"loss_changes":[0E0],"parents":[2147483647],"right_children":[-1],"split_conditions":[-1.4676411E-3],"split_indices":[0],"split_type":[0],"sum_hessian":[1.9973572E0],"tree_param":{"num_deleted":"0","num_feature":"76","num_nodes":"1","size_leaf_vector":"1"}},{"base_weights":[-3.8165643E-3],"categories":[],"categories_nodes":[],"categories_segments":[],"categories_sizes":[],"default_left":[0],"id":138,"left_children":[-1],"loss_changes":[0E0],"parents":[2147483647],"right_children":[-1],"split_conditions":[-3.8165643E-4],"split_indices":[0],"split_type":[0],"sum_hessian":[1.9139361E0],"tree_param":{"num_deleted":"0","num_feature":"76","num_nodes":"1","size_leaf_vector":"1"}},{"base_weights":[-2.2377684E-3],"categories":[],"categories_nodes":[],"categories_segments":[],"categories_sizes":[],"default_left":[0],"id":139,"left_children":[-1],"loss_changes":[0E0],"parents":[2147483647],"right_children":[-1],"split_conditions":[-2.2377683E-4],"split_indices":[0],"split_type":[0],"sum_hessian":[1.9405245E0],"tree_param":{"num_deleted":"0","num_feature":"76","num_nodes":"1","size_leaf_vector":"1"}},{"base_weights":[1.9380575E-2],"categories":[],"categories_nodes":[],"categories_segments":[],"categories_sizes":[],"default_left":[0],"id":140,"left_children":[-1],"loss_changes":[0E0],"parents":[2147483647],"right_children":[-1],"split_conditions":[1.9380575E-3],"split_indices":[0],"split_type":[0],"sum_hessian":[1.889567E0],"tree_param":{"num_deleted":"0","num_feature":"76","num_nodes":"1","size_leaf_vector":"1"}},{"base_weights":[1.0031519E-2],"categories":[],"categories_nodes":[],"categories_segments":[],"categories_sizes":[],"default_left":[0],"id":141,"left_children":[-1],"loss_changes":[0E0],"parents":[2147483647],"right_children":[-1],"split_conditions":[1.003152E-3],"split_indices":[0],"split_type":[0],"sum_hessian":[1.8849716E0],"tree_param":{"num_deleted":"0","num_feature":"76","num_nodes":"1","size_leaf_vector":"1"}},{"base_weights":[3.033435E-2],"categories":[],"categories_nodes":[],"categories_segments":[],"categories_sizes":[],"default_left":[0],"id":142,"left_children":[-1],"loss_changes":[0E0],"parents":[2147483647],"right_children":[-1],"split_conditions":[3.033435E-3],"split_indices":[0],"split_type":[0],"sum_hessian":[1.8506738E0],"tree_param":{"num_deleted":"0","num_feature":"76","num_nodes":"1","size_leaf_vector":"1"}},{"base_weights":[-7.483764E-3],"categories":[],"categories_nodes":[],"categories_segments":[],"categories_sizes":[],"default_left":[0],"id":143,"left_children":[-1],"loss_changes":[0E0],"parents":[2147483647],"right_children":[-1],"split_conditions":[-7.483764E-4],"split_indices":[0],"split_type":[0],"sum_hessian":[1.9355963E0],"tree_param":{"num_deleted":"0","num_feature":"76","num_nodes":"1","size_leaf_vector":"1"}},{"base_weights":[-1.1881417E-2],"categories":[],"categories_nodes":[],"categories_segments":[],"categories_sizes":[],"default_left":[0],"id":144,"left_children":[-1],"loss_changes":[0E0],"parents":[2147483647],"right_children":[-1],"split_conditions":[-1.1881416E-3],"split_indices":[0],"split_type":[0],"sum_hessian":[1.9386569E0],"tree_param":{"num_deleted":"0","num_feature":"76","num_nodes":"1","size_leaf_vector":"1"}},{"base_weights":[-2.089264E-2],"categories":[],"categories_nodes":[],"categories_segments":[],"categories_sizes":[],"default_left":[0],"id":145,"left_children":[-1],"loss_changes":[0E0],"parents":[2147483647],"right_children":[-1],"split_conditions":[-2.089264E-3],"split_indices":[0],"split_type":[0],"sum_hessian":[1.9385735E0],"tree_param":{"num_deleted":"0","num_feature":"76","num_nodes":"1","size_leaf_vector":"1"}},{"base_weights":[7.5385673E-3],"categories":[],"categories_nodes":[],"categories_segments":[],"categories_sizes":[],"default_left":[0],"id":146,"left_children":[-1],"loss_changes":[0E0],"parents":[2147483647],"right_children":[-1],"split_conditions":[7.5385673E-4],"split_indices":[0],"split_type":[0],"sum_hessian":[1.9318737E0],"tree_param":{"num_deleted":"0","num_feature":"76","num_nodes":"1","size_leaf_vector":"1"}},{"base_weights":[-1.7972883E-2],"categories":[],"categories_nodes":[],"categories_segments":[],"categories_sizes":[],"default_left":[0],"id":147,"left_children":[-1],"loss_changes":[0E0],"parents":[2147483647],"right_children":[-1],"split_conditions":[-1.7972883E-3],"split_indices":[0],"split_type":[0],"sum_hessian":[1.9642124E0],"tree_param":{"num_deleted":"0","num_feature":"76","num_nodes":"1","size_leaf_vector":"1"}},{"base_weights":[5.4643033E-3],"categories":[],"categories_nodes":[],"categories_segments":[],"categories_sizes":[],"default_left":[0],"id":148,"left_children":[-1],"loss_changes":[0E0],"parents":[2147483647],"right_children":[-1],"split_conditions":[5.4643035E-4],"split_indices":[0],"split_type":[0],"sum_hessian":[1.8966546E0],"tree_param":{"num_deleted":"0","num_feature":"76","num_nodes":"1","size_leaf_vector":"1"}},{"base_weights":[2.2381017E-2],"categories":[],"categories_nodes":[],"categories_segments":[],"categories_sizes":[],"default_left":[0],"id":149,"left_children":[-1],"loss_changes":[0E0],"parents":[2147483647],"right_children":[-1],"split_conditions":[2.2381018E-3],"split_indices":[0],"split_type":[0],"sum_hessian":[1.8799183E0],"tree_param":{"num_deleted":"0","num_feature":"76","num_nodes":"1","size_leaf_vector":"1"}},{"base_weights":[-1.1227584E-2],"categories":[],"categories_nodes":[],"categories_segments":[],"categories_sizes":[],"default_left":[0],"id":150,"left_children":[-1],"loss_changes":[0E0],"parents":[2147483647],"right_children":[-1],"split_conditions":[-1.1227585E-3],"split_indices":[0],"split_type":[0],"sum_hessian":[1.9535894E0],"tree_param":{"num_deleted":"0","num_feature":"76","num_nodes":"1","size_leaf_vector":"1"}},{"base_weights":[6.8237134E-3],"categories":[],"categories_nodes":[],"categories_segments":[],"categories_sizes":[],"default_left":[0],"id":151,"left_children":[-1],"loss_changes":[0E0],"parents":[2147483647],"right_children":[-1],"split_conditions":[6.823714E-4],"split_indices":[0],"split_type":[0],"sum_hessian":[1.9021062E0],"tree_param":{"num_deleted":"0","num_feature":"76","num_nodes":"1","size_leaf_vector":"1"}},{"base_weights":[1.2270511E-2],"categories":[],"categories_nodes":[],"categories_segments":[],"categories_sizes":[],"default_left":[0],"id":152,"left_children":[-1],"loss_changes":[0E0],"parents":[2147483647],"right_children":[-1],"split_conditions":[1.2270511E-3],"split_indices":[0],"split_type":[0],"sum_hessian":[1.9015899E0],"tree_param":{"num_deleted":"0","num_feature":"76","num_nodes":"1","size_leaf_vector":"1"}},{"base_weights":[-1.1994694E-3],"categories":[],"categories_nodes":[],"categories_segments":[],"categories_sizes":[],"default_left":[0],"id":153,"left_children":[-1],"loss_changes":[0E0],"parents":[2147483647],"right_children":[-1],"split_conditions":[-1.1994695E-4],"split_indices":[0],"split_type":[0],"sum_hessian":[1.8896229E0],"tree_param":{"num_deleted":"0","num_feature":"76","num_nodes":"1","size_leaf_vector":"1"}},{"base_weights":[1.4671453E-2],"categories":[],"categories_nodes":[],"categories_segments":[],"categories_sizes":[],"default_left":[0],"id":154,"left_children":[-1],"loss_changes":[0E0],"parents":[2147483647],"right_children":[-1],"split_conditions":[1.4671454E-3],"split_indices":[0],"split_type":[0],"sum_hessian":[1.9112052E0],"tree_param":{"num_deleted":"0","num_feature":"76","num_nodes":"1","size_leaf_vector":"1"}},{"base_weights":[6.0689254E-3],"categories":[],"categories_nodes":[],"categories_segments":[],"categories_sizes":[],"default_left":[0],"id":155,"left_children":[-1],"loss_changes":[0E0],"parents":[2147483647],"right_children":[-1],"split_conditions":[6.068926E-4],"split_indices":[0],"split_type":[0],"sum_hessian":[1.9395998E0],"tree_param":{"num_deleted":"0","num_feature":"76","num_nodes":"1","size_leaf_vector":"1"}},{"base_weights":[-6.244045E-3],"categories":[],"categories_nodes":[],"categories_segments":[],"categories_sizes":[],"default_left":[0],"id":156,"left_children":[-1],"loss_changes":[0E0],"parents":[2147483647],"right_children":[-1],"split_conditions":[-6.244045E-4],"split_indices":[0],"split_type":[0],"sum_hessian":[1.8820249E0],"tree_param":{"num_deleted":"0","num_feature":"76","num_nodes":"1","size_leaf_vector":"1"}},{"base_weights":[2.1515824E-2],"categories":[],"categories_nodes":[],"categories_segments":[],"categories_sizes":[],"default_left":[0],"id":157,"left_children":[-1],"loss_changes":[0E0],"parents":[2147483647],"right_children":[-1],"split_conditions":[2.1515824E-3],"split_indices":[0],"split_type":[0],"sum_hessian":[1.9122614E0],"tree_param":{"num_deleted":"0","num_feature":"76","num_nodes":"1","size_leaf_vector":"1"}},{"base_weights":[-1.1299624E-3],"categories":[],"categories_nodes":[],"categories_segments":[],"categories_sizes":[],"default_left":[0],"id":158,"left_children":[-1],"loss_changes":[0E0],"parents":[2147483647],"right_children":[-1],"split_conditions":[-1.1299624E-4],"split_indices":[0],"split_type":[0],"sum_hessian":[1.9272261E0],"tree_param":{"num_deleted":"0","num_feature":"76","num_nodes":"1","size_leaf_vector":"1"}},{"base_weights":[-8.646907E-3],"categories":[],"categories_nodes":[],"categories_segments":[],"categories_sizes":[],"default_left":[0],"id":159,"left_children":[-1],"loss_changes":[0E0],"parents":[2147483647],"right_children":[-1],"split_conditions":[-8.6469075E-4],"split_indices":[0],"split_type":[0],"sum_hessian":[1.952661E0],"tree_param":{"num_deleted":"0","num_feature":"76","num_nodes":"1","size_leaf_vector":"1"}},{"base_weights":[-7.919766E-3],"categories":[],"categories_nodes":[],"categories_segments":[],"categories_sizes":[],"default_left":[0],"id":160,"left_children":[-1],"loss_changes":[0E0],"parents":[2147483647],"right_children":[-1],"split_conditions":[-7.9197664E-4],"split_indices":[0],"split_type":[0],"sum_hessian":[1.9240781E0],"tree_param":{"num_deleted":"0","num_feature":"76","num_nodes":"1","size_leaf_vector":"1"}},{"base_weights":[2.0190291E-2],"categories":[],"categories_nodes":[],"categories_segments":[],"categories_sizes":[],"default_left":[0],"id":161,"left_children":[-1],"loss_changes":[0E0],"parents":[2147483647],"right_children":[-1],"split_conditions":[2.019029E-3],"split_indices":[0],"split_type":[0],"sum_hessian":[1.8467644E0],"tree_param":{"num_deleted":"0","num_feature":"76","num_nodes":"1","size_leaf_vector":"1"}},{"base_weights":[1.8259544E-3],"categories":[],"categories_nodes":[],"categories_segments":[],"categories_sizes":[],"default_left":[0],"id":162,"left_children":[-1],"loss_changes":[0E0],"parents":[2147483647],"right_children":[-1],"split_conditions":[1.8259544E-4],"split_indices":[0],"split_type":[0],"sum_hessian":[1.9357527E0],"tree_param":{"num_deleted":"0","num_feature":"76","num_nodes":"1","size_leaf_vector":"1"}},{"base_weights":[3.2216527E-3],"categories":[],"categories_nodes":[],"categories_segments":[],"categories_sizes":[],"default_left":[0],"id":163,"left_children":[-1],"loss_changes":[0E0],"parents":[2147483647],"right_children":[-1],"split_conditions":[3.221653E-4],"split_indices":[0],"split_type":[0],"sum_hessian":[1.916135E0],"tree_param":{"num_deleted":"0","num_feature":"76","num_nodes":"1","size_leaf_vector":"1"}},{"base_weights":[-1.2579721E-2],"categories":[],"categories_nodes":[],"categories_segments":[],"categories_sizes":[],"default_left":[0],"id":164,"left_children":[-1],"loss_changes":[0E0],"parents":[2147483647],"right_children":[-1],"split_conditions":[-1.2579722E-3],"split_indices":[0],"split_type":[0],"sum_hessian":[1.8854747E0],"tree_param":{"num_deleted":"0","num_feature":"76","num_nodes":"1","size_leaf_vector":"1"}},{"base_weights":[-2.8618343E-2],"categories":[],"categories_nodes":[],"categories_segments":[],"categories_sizes":[],"default_left":[0],"id":165,"left_children":[-1],"loss_changes":[0E0],"parents":[2147483647],"right_children":[-1],"split_conditions":[-2.8618344E-3],"split_indices":[0],"split_type":[0],"sum_hessian":[1.9450088E0],"tree_param":{"num_deleted":"0","num_feature":"76","num_nodes":"1","size_leaf_vector":"1"}},{"base_weights":[3.980488E-2],"categories":[],"categories_nodes":[],"categories_segments":[],"categories_sizes":[],"default_left":[0],"id":166,"left_children":[-1],"loss_changes":[0E0],"parents":[2147483647],"right_children":[-1],"split_conditions":[3.980488E-3],"split_indices":[0],"split_type":[0],"sum_hessian":[1.8468126E0],"tree_param":{"num_deleted":"0","num_feature":"76","num_nodes":"1","size_leaf_vector":"1"}},{"base_weights":[2.9725519E-3],"categories":[],"categories_nodes":[],"categories_segments":[],"categories_sizes":[],"default_left":[0],"id":167,"left_children":[-1],"loss_changes":[0E0],"parents":[2147483647],"right_children":[-1],"split_conditions":[2.972552E-4],"split_indices":[0],"split_type":[0],"sum_hessian":[1.9315223E0],"tree_param":{"num_deleted":"0","num_feature":"76","num_nodes":"1","size_leaf_vector":"1"}},{"base_weights":[-7.4339793E-3],"categories":[],"categories_nodes":[],"categories_segments":[],"categories_sizes":[],"default_left":[0],"id":168,"left_children":[-1],"loss_changes":[0E0],"parents":[2147483647],"right_children":[-1],"split_conditions":[-7.433979E-4],"split_indices":[0],"split_type":[0],"sum_hessian":[1.9680537E0],"tree_param":{"num_deleted":"0","num_feature":"76","num_nodes":"1","size_leaf_vector":"1"}},{"base_weights":[4.429244E-3],"categories":[],"categories_nodes":[],"categories_segments":[],"categories_sizes":[],